Language model created by QuickLM on Thu Mar 23 13:03:49 EDT 2023
Copyright (c) 1996-2010 Carnegie Mellon University and Alexander I. Rudnicky

The model is in standard ARPA format, designed by Doug Paul while he was at MITRE.

The code that was used to produce this language model is available in Open Source.
Please visit http://www.speech.cs.cmu.edu/tools/ for more information

The (fixed) discount mass is 0.5. The backoffs are computed using the ratio method.
This model based on a corpus of 1497 sentences and 87 words

\data\
ngram 1=87
ngram 2=624
ngram 3=1543

\1-grams:
-1.1104 </s> -0.3010
-1.1104 <s> -0.1719
-3.3314 ABLE -0.2327
-3.3314 BAKER -0.2327
-3.3825 BEAM -0.2999
-3.3825 BEAMING -0.2999
-1.7293 BRA -0.2573
-1.7293 BULLSEYE -0.2573
-3.2064 BYE -0.2660
-3.2064 CAP -0.2660
-3.2064 CAUTION -0.3008
-3.3314 CINNAMON -0.2327
-2.5954 CONTACT -0.2385
-3.3314 DAGGER -0.2327
-1.6835 DECIMAL -0.2217
-3.3825 DRAG -0.2999
-3.3825 DRAGGING -0.2999
-3.3314 EAGLE -0.2327
-3.5075 EAST -0.2999
-1.9432 EIGHT -0.1659
-2.7174 EIGHTEEN -0.2899
-3.2856 EIGHTY -0.1914
-2.9432 ELEVEN -0.2551
-2.7805 F -0.2994
-3.3314 FELINE -0.2327
-2.9432 FIFTEEN -0.2551
-3.2856 FIFTY -0.1914
-1.9036 FIVE -0.1659
-3.3825 FLANK -0.2999
-3.3825 FLANKING -0.2999
-2.6044 FOR -0.2999
-3.2856 FORTY -0.2316
-1.8842 FOUR -0.1645
-2.9634 FOURTEEN -0.2910
-3.3314 GANTRY -0.2327
-3.3314 HOG -0.2327
-2.5954 HOSTILE -0.2660
-4.2856 HOT -0.2999
-3.3314 ICY -0.2327
-3.3314 JOKER -0.2327
-3.0815 J_F -0.3002
-3.3314 KALE -0.2327
-3.3314 LONGBOW -0.2327
-2.0526 MAGIC -0.2660
-1.9846 MINUS -0.2145
-3.3314 MISFIT -0.2327
-4.2856 NEGATIVE -0.2999
-1.9432 NINER -0.1659
-2.9432 NINETEEN -0.2551
-3.5075 NINETY -0.2161
-3.3314 NITRO -0.2327
-3.5075 NORTH -0.2999
-3.5075 NORTHEAST -0.2999
-3.5075 NORTHWEST -0.2999
-1.4996 ONE -0.1607
-1.9846 PLUS -0.2145
-3.3314 POLARIS -0.2327
-2.6044 RADAR -0.2999
-3.3314 REACH -0.2327
-3.2064 SEED -0.2660
-1.9452 SEVEN -0.1659
-2.7058 SEVENTEEN -0.2539
-3.2856 SEVENTY -0.1914
-2.6044 SHIP -0.2999
-3.3314 SIMPLE -0.2327
-3.2064 SINGLE -0.2999
-1.9432 SIX -0.1659
-2.7174 SIXTEEN -0.2899
-3.2856 SIXTY -0.1914
-3.5075 SOUTH -0.2999
-3.5075 SOUTHEAST -0.2999
-3.5075 SOUTHWEST -0.2999
-3.2064 STRIKE -0.2660
-3.2064 S_A -0.2567
-3.3314 TEMPEST -0.2327
-2.9432 TEN -0.2551
-2.9432 THIRTEEN -0.2551
-3.2856 THIRTY -0.2316
-2.6728 THOUSAND -0.2660
-1.4283 THREAT -0.2845
-1.7139 THREE -0.1645
-2.9634 TWELVE -0.2910
-3.2856 TWENTY -0.2316
-1.6295 TWO -0.1645
-3.3314 VULCAN -0.2327
-3.5075 WEST -0.2999
-1.6697 ZERO -0.1659

\2-grams:
-2.5220 <s> ABLE 0.0000
-2.5220 <s> BAKER 0.0000
-2.5732 <s> BEAM 0.0000
-2.5732 <s> BEAMING 0.0000
-2.3971 <s> CAUTION 0.0000
-2.5220 <s> CINNAMON 0.0000
-2.5220 <s> DAGGER 0.0000
-2.5732 <s> DRAG 0.0000
-2.5732 <s> DRAGGING 0.0000
-2.5220 <s> EAGLE 0.0000
-3.4763 <s> EIGHT -0.2981
-3.4763 <s> EIGHTEEN -0.2951
-2.4763 <s> EIGHTY 0.0000
-3.4763 <s> ELEVEN -0.2910
-2.5220 <s> FELINE 0.0000
-3.4763 <s> FIFTEEN -0.2910
-2.4763 <s> FIFTY 0.0000
-3.4763 <s> FIVE -0.2983
-2.5732 <s> FLANK 0.0000
-2.5732 <s> FLANKING 0.0000
-2.4763 <s> FORTY 0.0000
-3.4763 <s> FOUR -0.2984
-3.4763 <s> FOURTEEN -0.2906
-2.5220 <s> GANTRY 0.0000
-2.5220 <s> HOG 0.0000
-3.4763 <s> HOT 0.0000
-2.5220 <s> ICY 0.0000
-2.5220 <s> JOKER 0.0000
-2.5220 <s> KALE 0.0000
-2.5220 <s> LONGBOW 0.0000
-1.1752 <s> MINUS 0.0000
-2.5220 <s> MISFIT 0.0000
-3.4763 <s> NEGATIVE 0.0000
-3.4763 <s> NINER -0.2981
-3.4763 <s> NINETEEN -0.2910
-2.6981 <s> NINETY 0.0000
-2.5220 <s> NITRO 0.0000
-3.4763 <s> ONE -0.3000
-1.1752 <s> PLUS 0.0000
-2.5220 <s> POLARIS 0.0000
-1.7950 <s> RADAR 0.0000
-2.5220 <s> REACH 0.0000
-3.4763 <s> SEVEN -0.2980
-3.4763 <s> SEVENTEEN -0.2953
-2.4763 <s> SEVENTY 0.0000
-2.5220 <s> SIMPLE 0.0000
-3.4763 <s> SIX -0.2981
-3.4763 <s> SIXTEEN -0.2951
-2.4763 <s> SIXTY 0.0000
-2.5220 <s> TEMPEST 0.0000
-3.4763 <s> TEN -0.2910
-3.4763 <s> THIRTEEN -0.2910
-2.4763 <s> THIRTY 0.0000
-0.6189 <s> THREAT 0.0000
-3.4763 <s> THREE -0.2993
-3.4763 <s> TWELVE -0.2906
-2.4763 <s> TWENTY 0.0000
-3.4763 <s> TWO -0.2996
-2.5220 <s> VULCAN 0.0000
-3.4763 <s> ZERO -0.3005
-1.2553 ABLE EIGHT -0.2756
-1.2553 ABLE FIVE -0.2760
-1.2553 ABLE FOUR -0.2771
-1.2553 ABLE NINER -0.2756
-1.2553 ABLE ONE -0.2840
-1.2553 ABLE SEVEN -0.2755
-1.2553 ABLE SIX -0.2756
-1.2553 ABLE THREE -0.2728
-1.2553 ABLE TWO -0.2779
-1.2553 BAKER EIGHT -0.2756
-1.2553 BAKER FIVE -0.2760
-1.2553 BAKER FOUR -0.2771
-1.2553 BAKER NINER -0.2756
-1.2553 BAKER ONE -0.2840
-1.2553 BAKER SEVEN -0.2755
-1.2553 BAKER SIX -0.2756
-1.2553 BAKER THREE -0.2728
-1.2553 BAKER TWO -0.2779
-1.2041 BEAM EAST 0.0000
-1.2041 BEAM NORTH 0.0000
-1.2041 BEAM NORTHEAST 0.0000
-1.2041 BEAM NORTHWEST 0.0000
-1.2041 BEAM SOUTH 0.0000
-1.2041 BEAM SOUTHEAST 0.0000
-1.2041 BEAM SOUTHWEST 0.0000
-1.2041 BEAM WEST 0.0000
-1.2041 BEAMING EAST 0.0000
-1.2041 BEAMING NORTH 0.0000
-1.2041 BEAMING NORTHEAST 0.0000
-1.2041 BEAMING NORTHWEST 0.0000
-1.2041 BEAMING SOUTH 0.0000
-1.2041 BEAMING SOUTHEAST 0.0000
-1.2041 BEAMING SOUTHWEST 0.0000
-1.2041 BEAMING WEST 0.0000
-0.8573 BRA ONE -0.1792
-1.0792 BRA THREE -0.1757
-0.8573 BRA TWO -0.1271
-0.8573 BRA ZERO -0.1212
-0.8573 BULLSEYE ONE -0.1792
-1.0792 BULLSEYE THREE -0.1757
-0.8573 BULLSEYE TWO -0.1271
-0.8573 BULLSEYE ZERO -0.1212
-0.3010 BYE </s> -0.3010
-0.3010 CAP </s> -0.3010
-0.3010 CAUTION S_A 0.0000
-1.2553 CINNAMON EIGHT -0.2756
-1.2553 CINNAMON FIVE -0.2760
-1.2553 CINNAMON FOUR -0.2771
-1.2553 CINNAMON NINER -0.2756
-1.2553 CINNAMON ONE -0.2840
-1.2553 CINNAMON SEVEN -0.2755
-1.2553 CINNAMON SIX -0.2756
-1.2553 CINNAMON THREE -0.2728
-1.2553 CINNAMON TWO -0.2779
-1.9912 CONTACT </s> -0.3010
-0.9120 CONTACT FOUR -0.2906
-0.9120 CONTACT SINGLE 0.0000
-0.9120 CONTACT THREE -0.2940
-0.9120 CONTACT TWO -0.2952
-1.2553 DAGGER EIGHT -0.2756
-1.2553 DAGGER FIVE -0.2760
-1.2553 DAGGER FOUR -0.2771
-1.2553 DAGGER NINER -0.2756
-1.2553 DAGGER ONE -0.2840
-1.2553 DAGGER SEVEN -0.2755
-1.2553 DAGGER SIX -0.2756
-1.2553 DAGGER THREE -0.2728
-1.2553 DAGGER TWO -0.2779
-1.3010 DECIMAL EIGHT -0.1654
-1.3010 DECIMAL FIVE -0.1779
-1.3010 DECIMAL FOUR -0.1852
-1.3010 DECIMAL NINER -0.1654
-1.3010 DECIMAL ONE -0.2569
-1.3010 DECIMAL SEVEN -0.1661
-1.3010 DECIMAL SIX -0.1654
-1.3010 DECIMAL THREE -0.2256
-1.3010 DECIMAL TWO -0.2399
-1.3010 DECIMAL ZERO -0.2377
-1.2041 DRAG EAST 0.0000
-1.2041 DRAG NORTH 0.0000
-1.2041 DRAG NORTHEAST 0.0000
-1.2041 DRAG NORTHWEST 0.0000
-1.2041 DRAG SOUTH 0.0000
-1.2041 DRAG SOUTHEAST 0.0000
-1.2041 DRAG SOUTHWEST 0.0000
-1.2041 DRAG WEST 0.0000
-1.2041 DRAGGING EAST 0.0000
-1.2041 DRAGGING NORTH 0.0000
-1.2041 DRAGGING NORTHEAST 0.0000
-1.2041 DRAGGING NORTHWEST 0.0000
-1.2041 DRAGGING SOUTH 0.0000
-1.2041 DRAGGING SOUTHEAST 0.0000
-1.2041 DRAGGING SOUTHWEST 0.0000
-1.2041 DRAGGING WEST 0.0000
-1.2553 EAGLE EIGHT -0.2756
-1.2553 EAGLE FIVE -0.2760
-1.2553 EAGLE FOUR -0.2771
-1.2553 EAGLE NINER -0.2756
-1.2553 EAGLE ONE -0.2840
-1.2553 EAGLE SEVEN -0.2755
-1.2553 EAGLE SIX -0.2756
-1.2553 EAGLE THREE -0.2728
-1.2553 EAGLE TWO -0.2779
-0.3010 EAST HOSTILE 0.0000
-0.5716 EIGHT </s> -0.3010
-1.3424 EIGHT DECIMAL 0.0000
-1.8653 EIGHT EIGHT -0.1654
-1.8653 EIGHT FIVE -0.1779
-1.8653 EIGHT FOUR -0.1852
-1.8653 EIGHT NINER -0.1654
-1.2455 EIGHT ONE -0.1838
-1.8653 EIGHT SEVEN -0.1661
-1.8653 EIGHT SIX -0.1654
-2.1663 EIGHT THOUSAND 0.0000
-1.8653 EIGHT THREE -0.2256
-1.8653 EIGHT TWO -0.2399
-1.8653 EIGHT ZERO -0.2377
-0.5682 EIGHTEEN DECIMAL 0.0000
-0.6651 EIGHTEEN FOR 0.0000
-1.8692 EIGHTEEN THOUSAND 0.0000
-1.3010 EIGHTY </s> -0.3010
-1.3010 EIGHTY EIGHT -0.1654
-1.3010 EIGHTY FIVE -0.1779
-1.3010 EIGHTY FOUR -0.1852
-1.3010 EIGHTY NINER -0.1654
-1.3010 EIGHTY ONE -0.2569
-1.3010 EIGHTY SEVEN -0.1661
-1.3010 EIGHTY SIX -0.1654
-1.3010 EIGHTY THREE -0.2256
-1.3010 EIGHTY TWO -0.2399
-1.6435 ELEVEN </s> -0.3010
-0.3424 ELEVEN DECIMAL 0.0000
-1.6435 ELEVEN THOUSAND 0.0000
-0.6021 F EIGHTEEN -0.1952
-0.6021 F SIXTEEN -0.1952
-1.2553 FELINE EIGHT -0.2756
-1.2553 FELINE FIVE -0.2760
-1.2553 FELINE FOUR -0.2771
-1.2553 FELINE NINER -0.2756
-1.2553 FELINE ONE -0.2840
-1.2553 FELINE SEVEN -0.2755
-1.2553 FELINE SIX -0.2756
-1.2553 FELINE THREE -0.2728
-1.2553 FELINE TWO -0.2779
-1.6435 FIFTEEN </s> -0.3010
-0.3424 FIFTEEN DECIMAL 0.0000
-1.6435 FIFTEEN THOUSAND 0.0000
-1.3010 FIFTY </s> -0.3010
-1.3010 FIFTY EIGHT -0.1654
-1.3010 FIFTY FIVE -0.1779
-1.3010 FIFTY FOUR -0.1852
-1.3010 FIFTY NINER -0.1654
-1.3010 FIFTY ONE -0.2569
-1.3010 FIFTY SEVEN -0.1661
-1.3010 FIFTY SIX -0.1654
-1.3010 FIFTY THREE -0.2256
-1.3010 FIFTY TWO -0.2399
-0.6075 FIVE </s> -0.3010
-1.3820 FIVE DECIMAL 0.0000
-1.7800 FIVE EIGHT -0.1654
-1.7800 FIVE FIVE -0.1779
-1.7800 FIVE FOUR -0.1852
-1.7800 FIVE NINER -0.1654
-1.2517 FIVE ONE -0.1838
-1.7800 FIVE SEVEN -0.1661
-1.7800 FIVE SIX -0.1654
-2.2059 FIVE THOUSAND 0.0000
-1.7800 FIVE THREE -0.2256
-1.7800 FIVE TWO -0.2399
-1.7800 FIVE ZERO -0.2377
-1.2041 FLANK EAST 0.0000
-1.2041 FLANK NORTH 0.0000
-1.2041 FLANK NORTHEAST 0.0000
-1.2041 FLANK NORTHWEST 0.0000
-1.2041 FLANK SOUTH 0.0000
-1.2041 FLANK SOUTHEAST 0.0000
-1.2041 FLANK SOUTHWEST 0.0000
-1.2041 FLANK WEST 0.0000
-1.2041 FLANKING EAST 0.0000
-1.2041 FLANKING NORTH 0.0000
-1.2041 FLANKING NORTHEAST 0.0000
-1.2041 FLANKING NORTHWEST 0.0000
-1.2041 FLANKING SOUTH 0.0000
-1.2041 FLANKING SOUTHEAST 0.0000
-1.2041 FLANKING SOUTHWEST 0.0000
-1.2041 FLANKING WEST 0.0000
-0.9031 FOR BYE 0.0000
-0.9031 FOR CAP 0.0000
-0.9031 FOR SEED 0.0000
-0.9031 FOR STRIKE 0.0000
-1.3010 FORTY EIGHT -0.1654
-1.3010 FORTY FIVE -0.1779
-1.3010 FORTY FOUR -0.1852
-1.3010 FORTY NINER -0.1654
-1.3010 FORTY ONE -0.2569
-1.3010 FORTY SEVEN -0.1661
-1.3010 FORTY SIX -0.1654
-1.3010 FORTY THOUSAND 0.0000
-1.3010 FORTY THREE -0.2256
-1.3010 FORTY TWO -0.2399
-0.6305 FOUR </s> -0.3010
-1.4014 FOUR DECIMAL 0.0000
-1.7993 FOUR EIGHT -0.1654
-1.7993 FOUR FIVE -0.1779
-1.7993 FOUR FOUR -0.1852
-1.7993 FOUR NINER -0.1654
-1.2711 FOUR ONE -0.1838
-1.7993 FOUR SEVEN -0.1661
-1.6232 FOUR SHIP 0.0000
-1.7993 FOUR SIX -0.1654
-2.2253 FOUR THOUSAND 0.0000
-1.7993 FOUR THREE -0.2256
-1.7993 FOUR TWO -0.2399
-1.7993 FOUR ZERO -0.2377
-0.3222 FOURTEEN DECIMAL 0.0000
-1.6232 FOURTEEN THOUSAND 0.0000
-1.2553 GANTRY EIGHT -0.2756
-1.2553 GANTRY FIVE -0.2760
-1.2553 GANTRY FOUR -0.2771
-1.2553 GANTRY NINER -0.2756
-1.2553 GANTRY ONE -0.2840
-1.2553 GANTRY SEVEN -0.2755
-1.2553 GANTRY SIX -0.2756
-1.2553 GANTRY THREE -0.2728
-1.2553 GANTRY TWO -0.2779
-1.2553 HOG EIGHT -0.2756
-1.2553 HOG FIVE -0.2760
-1.2553 HOG FOUR -0.2771
-1.2553 HOG NINER -0.2756
-1.2553 HOG ONE -0.2840
-1.2553 HOG SEVEN -0.2755
-1.2553 HOG SIX -0.2756
-1.2553 HOG THREE -0.2728
-1.2553 HOG TWO -0.2779
-0.3010 HOSTILE </s> -0.3010
-0.3010 HOT HOSTILE 0.0000
-1.2553 ICY EIGHT -0.2756
-1.2553 ICY FIVE -0.2760
-1.2553 ICY FOUR -0.2771
-1.2553 ICY NINER -0.2756
-1.2553 ICY ONE -0.2840
-1.2553 ICY SEVEN -0.2755
-1.2553 ICY SIX -0.2756
-1.2553 ICY THREE -0.2728
-1.2553 ICY TWO -0.2779
-1.2553 JOKER EIGHT -0.2756
-1.2553 JOKER FIVE -0.2760
-1.2553 JOKER FOUR -0.2771
-1.2553 JOKER NINER -0.2756
-1.2553 JOKER ONE -0.2840
-1.2553 JOKER SEVEN -0.2755
-1.2553 JOKER SIX -0.2756
-1.2553 JOKER THREE -0.2728
-1.2553 JOKER TWO -0.2779
-0.3010 J_F SEVENTEEN -0.1984
-1.2553 KALE EIGHT -0.2756
-1.2553 KALE FIVE -0.2760
-1.2553 KALE FOUR -0.2771
-1.2553 KALE NINER -0.2756
-1.2553 KALE ONE -0.2840
-1.2553 KALE SEVEN -0.2755
-1.2553 KALE SIX -0.2756
-1.2553 KALE THREE -0.2728
-1.2553 KALE TWO -0.2779
-1.2553 LONGBOW EIGHT -0.2756
-1.2553 LONGBOW FIVE -0.2760
-1.2553 LONGBOW FOUR -0.2771
-1.2553 LONGBOW NINER -0.2756
-1.2553 LONGBOW ONE -0.2840
-1.2553 LONGBOW SEVEN -0.2755
-1.2553 LONGBOW SIX -0.2756
-1.2553 LONGBOW THREE -0.2728
-1.2553 LONGBOW TWO -0.2779
-0.3010 MAGIC </s> -0.3010
-1.6021 MINUS EIGHT -0.2808
-1.6021 MINUS EIGHTEEN -0.1642
-1.6021 MINUS ELEVEN -0.0378
-1.6021 MINUS FIFTEEN -0.0378
-1.6021 MINUS FIVE -0.2826
-1.6021 MINUS FOUR -0.2834
-1.6021 MINUS FOURTEEN -0.0202
-1.6021 MINUS NINER -0.2808
-1.6021 MINUS NINETEEN -0.0378
-1.6021 MINUS ONE -0.2939
-1.6021 MINUS SEVEN -0.2807
-1.6021 MINUS SEVENTEEN -0.1684
-1.6021 MINUS SIX -0.2808
-1.6021 MINUS SIXTEEN -0.1642
-1.6021 MINUS TEN -0.0378
-1.6021 MINUS THIRTEEN -0.0378
-1.6021 MINUS THREE -0.2892
-1.6021 MINUS TWELVE -0.0202
-1.6021 MINUS TWO -0.2913
-1.6021 MINUS ZERO -0.2904
-1.2553 MISFIT EIGHT -0.2756
-1.2553 MISFIT FIVE -0.2760
-1.2553 MISFIT FOUR -0.2771
-1.2553 MISFIT NINER -0.2756
-1.2553 MISFIT ONE -0.2840
-1.2553 MISFIT SEVEN -0.2755
-1.2553 MISFIT SIX -0.2756
-1.2553 MISFIT THREE -0.2728
-1.2553 MISFIT TWO -0.2779
-0.3010 NEGATIVE CONTACT -0.2966
-0.5716 NINER </s> -0.3010
-1.3424 NINER DECIMAL 0.0000
-1.8653 NINER EIGHT -0.1654
-1.8653 NINER FIVE -0.1779
-1.8653 NINER FOUR -0.1852
-1.8653 NINER NINER -0.1654
-1.2455 NINER ONE -0.1838
-1.8653 NINER SEVEN -0.1661
-1.8653 NINER SIX -0.1654
-2.1663 NINER THOUSAND 0.0000
-1.8653 NINER THREE -0.2256
-1.8653 NINER TWO -0.2399
-1.8653 NINER ZERO -0.2377
-1.6435 NINETEEN </s> -0.3010
-0.3424 NINETEEN DECIMAL 0.0000
-1.6435 NINETEEN THOUSAND 0.0000
-1.0792 NINETY </s> -0.3010
-1.0792 NINETY FIVE -0.1779
-1.0792 NINETY FOUR -0.1852
-1.0792 NINETY ONE -0.2569
-1.0792 NINETY THREE -0.2256
-1.0792 NINETY TWO -0.2399
-1.2553 NITRO EIGHT -0.2756
-1.2553 NITRO FIVE -0.2760
-1.2553 NITRO FOUR -0.2771
-1.2553 NITRO NINER -0.2756
-1.2553 NITRO ONE -0.2840
-1.2553 NITRO SEVEN -0.2755
-1.2553 NITRO SIX -0.2756
-1.2553 NITRO THREE -0.2728
-1.2553 NITRO TWO -0.2779
-0.3010 NORTH HOSTILE 0.0000
-0.3010 NORTHEAST HOSTILE 0.0000
-0.3010 NORTHWEST HOSTILE 0.0000
-1.0152 ONE </s> -0.3010
-1.7860 ONE DECIMAL 0.0000
-1.6399 ONE EIGHT -0.0432
-1.6399 ONE FIVE -0.0396
-1.6399 ONE FOUR -0.0565
-0.8541 ONE MAGIC 0.0000
-1.6399 ONE NINER -0.0432
-1.4150 ONE ONE -0.0160
-1.6399 ONE SEVEN -0.0434
-1.6399 ONE SIX -0.0432
-2.6099 ONE THOUSAND 0.0000
-1.6399 ONE THREE -0.0390
-1.6399 ONE TWO -0.0323
-1.6399 ONE ZERO -0.0215
-1.6021 PLUS EIGHT -0.2808
-1.6021 PLUS EIGHTEEN -0.1642
-1.6021 PLUS ELEVEN -0.0378
-1.6021 PLUS FIFTEEN -0.0378
-1.6021 PLUS FIVE -0.2826
-1.6021 PLUS FOUR -0.2834
-1.6021 PLUS FOURTEEN -0.0202
-1.6021 PLUS NINER -0.2808
-1.6021 PLUS NINETEEN -0.0378
-1.6021 PLUS ONE -0.2939
-1.6021 PLUS SEVEN -0.2807
-1.6021 PLUS SEVENTEEN -0.1684
-1.6021 PLUS SIX -0.2808
-1.6021 PLUS SIXTEEN -0.1642
-1.6021 PLUS TEN -0.0378
-1.6021 PLUS THIRTEEN -0.0378
-1.6021 PLUS THREE -0.2892
-1.6021 PLUS TWELVE -0.0202
-1.6021 PLUS TWO -0.2913
-1.6021 PLUS ZERO -0.2904
-1.2553 POLARIS EIGHT -0.2756
-1.2553 POLARIS FIVE -0.2760
-1.2553 POLARIS FOUR -0.2771
-1.2553 POLARIS NINER -0.2756
-1.2553 POLARIS ONE -0.2840
-1.2553 POLARIS SEVEN -0.2755
-1.2553 POLARIS SIX -0.2756
-1.2553 POLARIS THREE -0.2728
-1.2553 POLARIS TWO -0.2779
-0.3010 RADAR CONTACT -0.0088
-1.2553 REACH EIGHT -0.2756
-1.2553 REACH FIVE -0.2760
-1.2553 REACH FOUR -0.2771
-1.2553 REACH NINER -0.2756
-1.2553 REACH ONE -0.2840
-1.2553 REACH SEVEN -0.2755
-1.2553 REACH SIX -0.2756
-1.2553 REACH THREE -0.2728
-1.2553 REACH TWO -0.2779
-0.3010 SEED </s> -0.3010
-0.5733 SEVEN </s> -0.3010
-1.3404 SEVEN DECIMAL 0.0000
-1.8633 SEVEN EIGHT -0.1654
-1.8633 SEVEN FIVE -0.1779
-1.8633 SEVEN FOUR -0.1852
-1.8633 SEVEN NINER -0.1654
-1.2435 SEVEN ONE -0.1838
-1.8633 SEVEN SEVEN -0.1661
-1.8633 SEVEN SIX -0.1654
-2.1644 SEVEN THOUSAND 0.0000
-1.8633 SEVEN THREE -0.2256
-1.8633 SEVEN TWO -0.2399
-1.8633 SEVEN ZERO -0.2377
-1.8808 SEVENTEEN </s> -0.3010
-0.5798 SEVENTEEN DECIMAL 0.0000
-0.6767 SEVENTEEN FOR 0.0000
-1.8808 SEVENTEEN THOUSAND 0.0000
-1.3010 SEVENTY </s> -0.3010
-1.3010 SEVENTY EIGHT -0.1654
-1.3010 SEVENTY FIVE -0.1779
-1.3010 SEVENTY FOUR -0.1852
-1.3010 SEVENTY NINER -0.1654
-1.3010 SEVENTY ONE -0.2569
-1.3010 SEVENTY SEVEN -0.1661
-1.3010 SEVENTY SIX -0.1654
-1.3010 SEVENTY THREE -0.2256
-1.3010 SEVENTY TWO -0.2399
-0.4771 SHIP F 0.0000
-0.7782 SHIP J_F 0.0000
-1.2553 SIMPLE EIGHT -0.2756
-1.2553 SIMPLE FIVE -0.2760
-1.2553 SIMPLE FOUR -0.2771
-1.2553 SIMPLE NINER -0.2756
-1.2553 SIMPLE ONE -0.2840
-1.2553 SIMPLE SEVEN -0.2755
-1.2553 SIMPLE SIX -0.2756
-1.2553 SIMPLE THREE -0.2728
-1.2553 SIMPLE TWO -0.2779
-0.3010 SINGLE SHIP 0.0000
-0.5716 SIX </s> -0.3010
-1.3424 SIX DECIMAL 0.0000
-1.8653 SIX EIGHT -0.1654
-1.8653 SIX FIVE -0.1779
-1.8653 SIX FOUR -0.1852
-1.8653 SIX NINER -0.1654
-1.2455 SIX ONE -0.1838
-1.8653 SIX SEVEN -0.1661
-1.8653 SIX SIX -0.1654
-2.1663 SIX THOUSAND 0.0000
-1.8653 SIX THREE -0.2256
-1.8653 SIX TWO -0.2399
-1.8653 SIX ZERO -0.2377
-0.5682 SIXTEEN DECIMAL 0.0000
-0.6651 SIXTEEN FOR 0.0000
-1.8692 SIXTEEN THOUSAND 0.0000
-1.3010 SIXTY </s> -0.3010
-1.3010 SIXTY EIGHT -0.1654
-1.3010 SIXTY FIVE -0.1779
-1.3010 SIXTY FOUR -0.1852
-1.3010 SIXTY NINER -0.1654
-1.3010 SIXTY ONE -0.2569
-1.3010 SIXTY SEVEN -0.1661
-1.3010 SIXTY SIX -0.1654
-1.3010 SIXTY THREE -0.2256
-1.3010 SIXTY TWO -0.2399
-0.3010 SOUTH HOSTILE 0.0000
-0.3010 SOUTHEAST HOSTILE 0.0000
-0.3010 SOUTHWEST HOSTILE 0.0000
-0.3010 STRIKE </s> -0.3010
-1.3802 S_A EIGHT -0.1654
-1.3802 S_A ELEVEN -0.2910
-1.3802 S_A FIFTEEN -0.2910
-1.3802 S_A FIVE -0.1779
-1.3802 S_A NINER -0.1654
-1.3802 S_A NINETEEN -0.2910
-1.3802 S_A SEVENTEEN -0.2953
-1.3802 S_A SIX -0.1654
-1.3802 S_A TEN -0.2910
-1.3802 S_A THIRTEEN -0.2910
-1.3802 S_A THREE -0.2256
-1.3802 S_A TWO -0.2399
-1.2553 TEMPEST EIGHT -0.2756
-1.2553 TEMPEST FIVE -0.2760
-1.2553 TEMPEST FOUR -0.2771
-1.2553 TEMPEST NINER -0.2756
-1.2553 TEMPEST ONE -0.2840
-1.2553 TEMPEST SEVEN -0.2755
-1.2553 TEMPEST SIX -0.2756
-1.2553 TEMPEST THREE -0.2728
-1.2553 TEMPEST TWO -0.2779
-1.6435 TEN </s> -0.3010
-0.3424 TEN DECIMAL 0.0000
-1.6435 TEN THOUSAND 0.0000
-1.6435 THIRTEEN </s> -0.3010
-0.3424 THIRTEEN DECIMAL 0.0000
-1.6435 THIRTEEN THOUSAND 0.0000
-1.3010 THIRTY EIGHT -0.2981
-1.3010 THIRTY FIVE -0.2983
-1.3010 THIRTY FOUR -0.2984
-1.3010 THIRTY NINER -0.2981
-1.3010 THIRTY ONE -0.3000
-1.3010 THIRTY SEVEN -0.2980
-1.3010 THIRTY SIX -0.2981
-1.3010 THIRTY THOUSAND 0.0000
-1.3010 THIRTY THREE -0.2993
-1.3010 THIRTY TWO -0.2996
-0.3010 THOUSAND </s> -0.3010
-0.6021 THREAT BRA 0.0000
-0.6021 THREAT BULLSEYE 0.0000
-0.7972 THREE </s> -0.3010
-1.5717 THREE DECIMAL 0.0000
-1.9696 THREE EIGHT -0.1654
-1.4256 THREE FIVE -0.0396
-1.4256 THREE FOUR -0.0565
-1.9696 THREE NINER -0.1654
-1.2006 THREE ONE -0.0160
-1.9696 THREE SEVEN -0.1661
-1.7936 THREE SHIP 0.0000
-1.9696 THREE SIX -0.1654
-2.3956 THREE THOUSAND 0.0000
-1.4256 THREE THREE -0.0390
-1.4256 THREE TWO -0.0323
-1.4256 THREE ZERO -0.0215
-0.3222 TWELVE DECIMAL 0.0000
-1.6232 TWELVE THOUSAND 0.0000
-1.3010 TWENTY EIGHT -0.2981
-1.3010 TWENTY FIVE -0.2983
-1.3010 TWENTY FOUR -0.2984
-1.3010 TWENTY NINER -0.2981
-1.3010 TWENTY ONE -0.3000
-1.3010 TWENTY SEVEN -0.2980
-1.3010 TWENTY SIX -0.2981
-1.3010 TWENTY THOUSAND 0.0000
-1.3010 TWENTY THREE -0.2993
-1.3010 TWENTY TWO -0.2996
-0.8816 TWO </s> -0.3010
-1.6561 TWO DECIMAL 0.0000
-1.5100 TWO EIGHT -0.0432
-1.5100 TWO FIVE -0.0396
-1.5100 TWO FOUR -0.0565
-1.5100 TWO NINER -0.0432
-1.2850 TWO ONE -0.0160
-1.5100 TWO SEVEN -0.0434
-1.8779 TWO SHIP 0.0000
-1.5100 TWO SIX -0.0432
-2.4800 TWO THOUSAND 0.0000
-1.5100 TWO THREE -0.0390
-1.5100 TWO TWO -0.0323
-1.5100 TWO ZERO -0.0215
-1.2553 VULCAN EIGHT -0.2756
-1.2553 VULCAN FIVE -0.2760
-1.2553 VULCAN FOUR -0.2771
-1.2553 VULCAN NINER -0.2756
-1.2553 VULCAN ONE -0.2840
-1.2553 VULCAN SEVEN -0.2755
-1.2553 VULCAN SIX -0.2756
-1.2553 VULCAN THREE -0.2728
-1.2553 VULCAN TWO -0.2779
-0.3010 WEST HOSTILE 0.0000
-0.8678 ZERO </s> -0.3010
-1.6160 ZERO DECIMAL 0.0000
-1.4698 ZERO EIGHT -0.0432
-1.4698 ZERO FIVE -0.0396
-1.4698 ZERO FOUR -0.0565
-1.4698 ZERO NINER -0.0432
-1.4698 ZERO ONE -0.1198
-1.4698 ZERO SEVEN -0.0434
-1.4698 ZERO SIX -0.0432
-2.9170 ZERO THOUSAND 0.0000
-1.4698 ZERO THREE -0.0390
-1.4698 ZERO TWO -0.0323
-1.4698 ZERO ZERO -0.0215

\3-grams:
-1.2553 <s> ABLE EIGHT
-1.2553 <s> ABLE FIVE
-1.2553 <s> ABLE FOUR
-1.2553 <s> ABLE NINER
-1.2553 <s> ABLE ONE
-1.2553 <s> ABLE SEVEN
-1.2553 <s> ABLE SIX
-1.2553 <s> ABLE THREE
-1.2553 <s> ABLE TWO
-1.2553 <s> BAKER EIGHT
-1.2553 <s> BAKER FIVE
-1.2553 <s> BAKER FOUR
-1.2553 <s> BAKER NINER
-1.2553 <s> BAKER ONE
-1.2553 <s> BAKER SEVEN
-1.2553 <s> BAKER SIX
-1.2553 <s> BAKER THREE
-1.2553 <s> BAKER TWO
-1.2041 <s> BEAM EAST
-1.2041 <s> BEAM NORTH
-1.2041 <s> BEAM NORTHEAST
-1.2041 <s> BEAM NORTHWEST
-1.2041 <s> BEAM SOUTH
-1.2041 <s> BEAM SOUTHEAST
-1.2041 <s> BEAM SOUTHWEST
-1.2041 <s> BEAM WEST
-1.2041 <s> BEAMING EAST
-1.2041 <s> BEAMING NORTH
-1.2041 <s> BEAMING NORTHEAST
-1.2041 <s> BEAMING NORTHWEST
-1.2041 <s> BEAMING SOUTH
-1.2041 <s> BEAMING SOUTHEAST
-1.2041 <s> BEAMING SOUTHWEST
-1.2041 <s> BEAMING WEST
-0.3010 <s> CAUTION S_A
-1.2553 <s> CINNAMON EIGHT
-1.2553 <s> CINNAMON FIVE
-1.2553 <s> CINNAMON FOUR
-1.2553 <s> CINNAMON NINER
-1.2553 <s> CINNAMON ONE
-1.2553 <s> CINNAMON SEVEN
-1.2553 <s> CINNAMON SIX
-1.2553 <s> CINNAMON THREE
-1.2553 <s> CINNAMON TWO
-1.2553 <s> DAGGER EIGHT
-1.2553 <s> DAGGER FIVE
-1.2553 <s> DAGGER FOUR
-1.2553 <s> DAGGER NINER
-1.2553 <s> DAGGER ONE
-1.2553 <s> DAGGER SEVEN
-1.2553 <s> DAGGER SIX
-1.2553 <s> DAGGER THREE
-1.2553 <s> DAGGER TWO
-1.2041 <s> DRAG EAST
-1.2041 <s> DRAG NORTH
-1.2041 <s> DRAG NORTHEAST
-1.2041 <s> DRAG NORTHWEST
-1.2041 <s> DRAG SOUTH
-1.2041 <s> DRAG SOUTHEAST
-1.2041 <s> DRAG SOUTHWEST
-1.2041 <s> DRAG WEST
-1.2041 <s> DRAGGING EAST
-1.2041 <s> DRAGGING NORTH
-1.2041 <s> DRAGGING NORTHEAST
-1.2041 <s> DRAGGING NORTHWEST
-1.2041 <s> DRAGGING SOUTH
-1.2041 <s> DRAGGING SOUTHEAST
-1.2041 <s> DRAGGING SOUTHWEST
-1.2041 <s> DRAGGING WEST
-1.2553 <s> EAGLE EIGHT
-1.2553 <s> EAGLE FIVE
-1.2553 <s> EAGLE FOUR
-1.2553 <s> EAGLE NINER
-1.2553 <s> EAGLE ONE
-1.2553 <s> EAGLE SEVEN
-1.2553 <s> EAGLE SIX
-1.2553 <s> EAGLE THREE
-1.2553 <s> EAGLE TWO
-0.3010 <s> EIGHT THOUSAND
-0.3010 <s> EIGHTEEN THOUSAND
-1.3010 <s> EIGHTY </s>
-1.3010 <s> EIGHTY EIGHT
-1.3010 <s> EIGHTY FIVE
-1.3010 <s> EIGHTY FOUR
-1.3010 <s> EIGHTY NINER
-1.3010 <s> EIGHTY ONE
-1.3010 <s> EIGHTY SEVEN
-1.3010 <s> EIGHTY SIX
-1.3010 <s> EIGHTY THREE
-1.3010 <s> EIGHTY TWO
-0.3010 <s> ELEVEN THOUSAND
-1.2553 <s> FELINE EIGHT
-1.2553 <s> FELINE FIVE
-1.2553 <s> FELINE FOUR
-1.2553 <s> FELINE NINER
-1.2553 <s> FELINE ONE
-1.2553 <s> FELINE SEVEN
-1.2553 <s> FELINE SIX
-1.2553 <s> FELINE THREE
-1.2553 <s> FELINE TWO
-0.3010 <s> FIFTEEN THOUSAND
-1.3010 <s> FIFTY </s>
-1.3010 <s> FIFTY EIGHT
-1.3010 <s> FIFTY FIVE
-1.3010 <s> FIFTY FOUR
-1.3010 <s> FIFTY NINER
-1.3010 <s> FIFTY ONE
-1.3010 <s> FIFTY SEVEN
-1.3010 <s> FIFTY SIX
-1.3010 <s> FIFTY THREE
-1.3010 <s> FIFTY TWO
-0.3010 <s> FIVE THOUSAND
-1.2041 <s> FLANK EAST
-1.2041 <s> FLANK NORTH
-1.2041 <s> FLANK NORTHEAST
-1.2041 <s> FLANK NORTHWEST
-1.2041 <s> FLANK SOUTH
-1.2041 <s> FLANK SOUTHEAST
-1.2041 <s> FLANK SOUTHWEST
-1.2041 <s> FLANK WEST
-1.2041 <s> FLANKING EAST
-1.2041 <s> FLANKING NORTH
-1.2041 <s> FLANKING NORTHEAST
-1.2041 <s> FLANKING NORTHWEST
-1.2041 <s> FLANKING SOUTH
-1.2041 <s> FLANKING SOUTHEAST
-1.2041 <s> FLANKING SOUTHWEST
-1.2041 <s> FLANKING WEST
-1.3010 <s> FORTY EIGHT
-1.3010 <s> FORTY FIVE
-1.3010 <s> FORTY FOUR
-1.3010 <s> FORTY NINER
-1.3010 <s> FORTY ONE
-1.3010 <s> FORTY SEVEN
-1.3010 <s> FORTY SIX
-1.3010 <s> FORTY THOUSAND
-1.3010 <s> FORTY THREE
-1.3010 <s> FORTY TWO
-0.3010 <s> FOUR THOUSAND
-0.3010 <s> FOURTEEN THOUSAND
-1.2553 <s> GANTRY EIGHT
-1.2553 <s> GANTRY FIVE
-1.2553 <s> GANTRY FOUR
-1.2553 <s> GANTRY NINER
-1.2553 <s> GANTRY ONE
-1.2553 <s> GANTRY SEVEN
-1.2553 <s> GANTRY SIX
-1.2553 <s> GANTRY THREE
-1.2553 <s> GANTRY TWO
-1.2553 <s> HOG EIGHT
-1.2553 <s> HOG FIVE
-1.2553 <s> HOG FOUR
-1.2553 <s> HOG NINER
-1.2553 <s> HOG ONE
-1.2553 <s> HOG SEVEN
-1.2553 <s> HOG SIX
-1.2553 <s> HOG THREE
-1.2553 <s> HOG TWO
-0.3010 <s> HOT HOSTILE
-1.2553 <s> ICY EIGHT
-1.2553 <s> ICY FIVE
-1.2553 <s> ICY FOUR
-1.2553 <s> ICY NINER
-1.2553 <s> ICY ONE
-1.2553 <s> ICY SEVEN
-1.2553 <s> ICY SIX
-1.2553 <s> ICY THREE
-1.2553 <s> ICY TWO
-1.2553 <s> JOKER EIGHT
-1.2553 <s> JOKER FIVE
-1.2553 <s> JOKER FOUR
-1.2553 <s> JOKER NINER
-1.2553 <s> JOKER ONE
-1.2553 <s> JOKER SEVEN
-1.2553 <s> JOKER SIX
-1.2553 <s> JOKER THREE
-1.2553 <s> JOKER TWO
-1.2553 <s> KALE EIGHT
-1.2553 <s> KALE FIVE
-1.2553 <s> KALE FOUR
-1.2553 <s> KALE NINER
-1.2553 <s> KALE ONE
-1.2553 <s> KALE SEVEN
-1.2553 <s> KALE SIX
-1.2553 <s> KALE THREE
-1.2553 <s> KALE TWO
-1.2553 <s> LONGBOW EIGHT
-1.2553 <s> LONGBOW FIVE
-1.2553 <s> LONGBOW FOUR
-1.2553 <s> LONGBOW NINER
-1.2553 <s> LONGBOW ONE
-1.2553 <s> LONGBOW SEVEN
-1.2553 <s> LONGBOW SIX
-1.2553 <s> LONGBOW THREE
-1.2553 <s> LONGBOW TWO
-1.6021 <s> MINUS EIGHT
-1.6021 <s> MINUS EIGHTEEN
-1.6021 <s> MINUS ELEVEN
-1.6021 <s> MINUS FIFTEEN
-1.6021 <s> MINUS FIVE
-1.6021 <s> MINUS FOUR
-1.6021 <s> MINUS FOURTEEN
-1.6021 <s> MINUS NINER
-1.6021 <s> MINUS NINETEEN
-1.6021 <s> MINUS ONE
-1.6021 <s> MINUS SEVEN
-1.6021 <s> MINUS SEVENTEEN
-1.6021 <s> MINUS SIX
-1.6021 <s> MINUS SIXTEEN
-1.6021 <s> MINUS TEN
-1.6021 <s> MINUS THIRTEEN
-1.6021 <s> MINUS THREE
-1.6021 <s> MINUS TWELVE
-1.6021 <s> MINUS TWO
-1.6021 <s> MINUS ZERO
-1.2553 <s> MISFIT EIGHT
-1.2553 <s> MISFIT FIVE
-1.2553 <s> MISFIT FOUR
-1.2553 <s> MISFIT NINER
-1.2553 <s> MISFIT ONE
-1.2553 <s> MISFIT SEVEN
-1.2553 <s> MISFIT SIX
-1.2553 <s> MISFIT THREE
-1.2553 <s> MISFIT TWO
-0.3010 <s> NEGATIVE CONTACT
-0.3010 <s> NINER THOUSAND
-0.3010 <s> NINETEEN THOUSAND
-1.0792 <s> NINETY </s>
-1.0792 <s> NINETY FIVE
-1.0792 <s> NINETY FOUR
-1.0792 <s> NINETY ONE
-1.0792 <s> NINETY THREE
-1.0792 <s> NINETY TWO
-1.2553 <s> NITRO EIGHT
-1.2553 <s> NITRO FIVE
-1.2553 <s> NITRO FOUR
-1.2553 <s> NITRO NINER
-1.2553 <s> NITRO ONE
-1.2553 <s> NITRO SEVEN
-1.2553 <s> NITRO SIX
-1.2553 <s> NITRO THREE
-1.2553 <s> NITRO TWO
-0.3010 <s> ONE THOUSAND
-1.6021 <s> PLUS EIGHT
-1.6021 <s> PLUS EIGHTEEN
-1.6021 <s> PLUS ELEVEN
-1.6021 <s> PLUS FIFTEEN
-1.6021 <s> PLUS FIVE
-1.6021 <s> PLUS FOUR
-1.6021 <s> PLUS FOURTEEN
-1.6021 <s> PLUS NINER
-1.6021 <s> PLUS NINETEEN
-1.6021 <s> PLUS ONE
-1.6021 <s> PLUS SEVEN
-1.6021 <s> PLUS SEVENTEEN
-1.6021 <s> PLUS SIX
-1.6021 <s> PLUS SIXTEEN
-1.6021 <s> PLUS TEN
-1.6021 <s> PLUS THIRTEEN
-1.6021 <s> PLUS THREE
-1.6021 <s> PLUS TWELVE
-1.6021 <s> PLUS TWO
-1.6021 <s> PLUS ZERO
-1.2553 <s> POLARIS EIGHT
-1.2553 <s> POLARIS FIVE
-1.2553 <s> POLARIS FOUR
-1.2553 <s> POLARIS NINER
-1.2553 <s> POLARIS ONE
-1.2553 <s> POLARIS SEVEN
-1.2553 <s> POLARIS SIX
-1.2553 <s> POLARIS THREE
-1.2553 <s> POLARIS TWO
-0.3010 <s> RADAR CONTACT
-1.2553 <s> REACH EIGHT
-1.2553 <s> REACH FIVE
-1.2553 <s> REACH FOUR
-1.2553 <s> REACH NINER
-1.2553 <s> REACH ONE
-1.2553 <s> REACH SEVEN
-1.2553 <s> REACH SIX
-1.2553 <s> REACH THREE
-1.2553 <s> REACH TWO
-0.3010 <s> SEVEN THOUSAND
-0.3010 <s> SEVENTEEN THOUSAND
-1.3010 <s> SEVENTY </s>
-1.3010 <s> SEVENTY EIGHT
-1.3010 <s> SEVENTY FIVE
-1.3010 <s> SEVENTY FOUR
-1.3010 <s> SEVENTY NINER
-1.3010 <s> SEVENTY ONE
-1.3010 <s> SEVENTY SEVEN
-1.3010 <s> SEVENTY SIX
-1.3010 <s> SEVENTY THREE
-1.3010 <s> SEVENTY TWO
-1.2553 <s> SIMPLE EIGHT
-1.2553 <s> SIMPLE FIVE
-1.2553 <s> SIMPLE FOUR
-1.2553 <s> SIMPLE NINER
-1.2553 <s> SIMPLE ONE
-1.2553 <s> SIMPLE SEVEN
-1.2553 <s> SIMPLE SIX
-1.2553 <s> SIMPLE THREE
-1.2553 <s> SIMPLE TWO
-0.3010 <s> SIX THOUSAND
-0.3010 <s> SIXTEEN THOUSAND
-1.3010 <s> SIXTY </s>
-1.3010 <s> SIXTY EIGHT
-1.3010 <s> SIXTY FIVE
-1.3010 <s> SIXTY FOUR
-1.3010 <s> SIXTY NINER
-1.3010 <s> SIXTY ONE
-1.3010 <s> SIXTY SEVEN
-1.3010 <s> SIXTY SIX
-1.3010 <s> SIXTY THREE
-1.3010 <s> SIXTY TWO
-1.2553 <s> TEMPEST EIGHT
-1.2553 <s> TEMPEST FIVE
-1.2553 <s> TEMPEST FOUR
-1.2553 <s> TEMPEST NINER
-1.2553 <s> TEMPEST ONE
-1.2553 <s> TEMPEST SEVEN
-1.2553 <s> TEMPEST SIX
-1.2553 <s> TEMPEST THREE
-1.2553 <s> TEMPEST TWO
-0.3010 <s> TEN THOUSAND
-0.3010 <s> THIRTEEN THOUSAND
-1.3010 <s> THIRTY EIGHT
-1.3010 <s> THIRTY FIVE
-1.3010 <s> THIRTY FOUR
-1.3010 <s> THIRTY NINER
-1.3010 <s> THIRTY ONE
-1.3010 <s> THIRTY SEVEN
-1.3010 <s> THIRTY SIX
-1.3010 <s> THIRTY THOUSAND
-1.3010 <s> THIRTY THREE
-1.3010 <s> THIRTY TWO
-0.6021 <s> THREAT BRA
-0.6021 <s> THREAT BULLSEYE
-0.3010 <s> THREE THOUSAND
-0.3010 <s> TWELVE THOUSAND
-1.3010 <s> TWENTY EIGHT
-1.3010 <s> TWENTY FIVE
-1.3010 <s> TWENTY FOUR
-1.3010 <s> TWENTY NINER
-1.3010 <s> TWENTY ONE
-1.3010 <s> TWENTY SEVEN
-1.3010 <s> TWENTY SIX
-1.3010 <s> TWENTY THOUSAND
-1.3010 <s> TWENTY THREE
-1.3010 <s> TWENTY TWO
-0.3010 <s> TWO THOUSAND
-1.2553 <s> VULCAN EIGHT
-1.2553 <s> VULCAN FIVE
-1.2553 <s> VULCAN FOUR
-1.2553 <s> VULCAN NINER
-1.2553 <s> VULCAN ONE
-1.2553 <s> VULCAN SEVEN
-1.2553 <s> VULCAN SIX
-1.2553 <s> VULCAN THREE
-1.2553 <s> VULCAN TWO
-0.3010 <s> ZERO THOUSAND
-0.3010 ABLE EIGHT ONE
-0.3010 ABLE FIVE ONE
-0.3010 ABLE FOUR ONE
-0.3010 ABLE NINER ONE
-0.3010 ABLE ONE ONE
-0.3010 ABLE SEVEN ONE
-0.3010 ABLE SIX ONE
-0.3010 ABLE THREE ONE
-0.3010 ABLE TWO ONE
-0.3010 BAKER EIGHT ONE
-0.3010 BAKER FIVE ONE
-0.3010 BAKER FOUR ONE
-0.3010 BAKER NINER ONE
-0.3010 BAKER ONE ONE
-0.3010 BAKER SEVEN ONE
-0.3010 BAKER SIX ONE
-0.3010 BAKER THREE ONE
-0.3010 BAKER TWO ONE
-0.3010 BEAM EAST HOSTILE
-0.3010 BEAM NORTH HOSTILE
-0.3010 BEAM NORTHEAST HOSTILE
-0.3010 BEAM NORTHWEST HOSTILE
-0.3010 BEAM SOUTH HOSTILE
-0.3010 BEAM SOUTHEAST HOSTILE
-0.3010 BEAM SOUTHWEST HOSTILE
-0.3010 BEAM WEST HOSTILE
-0.3010 BEAMING EAST HOSTILE
-0.3010 BEAMING NORTH HOSTILE
-0.3010 BEAMING NORTHEAST HOSTILE
-0.3010 BEAMING NORTHWEST HOSTILE
-0.3010 BEAMING SOUTH HOSTILE
-0.3010 BEAMING SOUTHEAST HOSTILE
-0.3010 BEAMING SOUTHWEST HOSTILE
-0.3010 BEAMING WEST HOSTILE
-1.3010 BRA ONE EIGHT
-1.3010 BRA ONE FIVE
-1.3010 BRA ONE FOUR
-1.3010 BRA ONE NINER
-1.3010 BRA ONE ONE
-1.3010 BRA ONE SEVEN
-1.3010 BRA ONE SIX
-1.3010 BRA ONE THREE
-1.3010 BRA ONE TWO
-1.3010 BRA ONE ZERO
-1.0792 BRA THREE FIVE
-1.0792 BRA THREE FOUR
-1.0792 BRA THREE ONE
-1.0792 BRA THREE THREE
-1.0792 BRA THREE TWO
-1.0792 BRA THREE ZERO
-1.3010 BRA TWO EIGHT
-1.3010 BRA TWO FIVE
-1.3010 BRA TWO FOUR
-1.3010 BRA TWO NINER
-1.3010 BRA TWO ONE
-1.3010 BRA TWO SEVEN
-1.3010 BRA TWO SIX
-1.3010 BRA TWO THREE
-1.3010 BRA TWO TWO
-1.3010 BRA TWO ZERO
-1.3010 BRA ZERO EIGHT
-1.3010 BRA ZERO FIVE
-1.3010 BRA ZERO FOUR
-1.3010 BRA ZERO NINER
-1.3010 BRA ZERO ONE
-1.3010 BRA ZERO SEVEN
-1.3010 BRA ZERO SIX
-1.3010 BRA ZERO THREE
-1.3010 BRA ZERO TWO
-1.3010 BRA ZERO ZERO
-1.3010 BULLSEYE ONE EIGHT
-1.3010 BULLSEYE ONE FIVE
-1.3010 BULLSEYE ONE FOUR
-1.3010 BULLSEYE ONE NINER
-1.3010 BULLSEYE ONE ONE
-1.3010 BULLSEYE ONE SEVEN
-1.3010 BULLSEYE ONE SIX
-1.3010 BULLSEYE ONE THREE
-1.3010 BULLSEYE ONE TWO
-1.3010 BULLSEYE ONE ZERO
-1.0792 BULLSEYE THREE FIVE
-1.0792 BULLSEYE THREE FOUR
-1.0792 BULLSEYE THREE ONE
-1.0792 BULLSEYE THREE THREE
-1.0792 BULLSEYE THREE TWO
-1.0792 BULLSEYE THREE ZERO
-1.3010 BULLSEYE TWO EIGHT
-1.3010 BULLSEYE TWO FIVE
-1.3010 BULLSEYE TWO FOUR
-1.3010 BULLSEYE TWO NINER
-1.3010 BULLSEYE TWO ONE
-1.3010 BULLSEYE TWO SEVEN
-1.3010 BULLSEYE TWO SIX
-1.3010 BULLSEYE TWO THREE
-1.3010 BULLSEYE TWO TWO
-1.3010 BULLSEYE TWO ZERO
-1.3010 BULLSEYE ZERO EIGHT
-1.3010 BULLSEYE ZERO FIVE
-1.3010 BULLSEYE ZERO FOUR
-1.3010 BULLSEYE ZERO NINER
-1.3010 BULLSEYE ZERO ONE
-1.3010 BULLSEYE ZERO SEVEN
-1.3010 BULLSEYE ZERO SIX
-1.3010 BULLSEYE ZERO THREE
-1.3010 BULLSEYE ZERO TWO
-1.3010 BULLSEYE ZERO ZERO
-1.3802 CAUTION S_A EIGHT
-1.3802 CAUTION S_A ELEVEN
-1.3802 CAUTION S_A FIFTEEN
-1.3802 CAUTION S_A FIVE
-1.3802 CAUTION S_A NINER
-1.3802 CAUTION S_A NINETEEN
-1.3802 CAUTION S_A SEVENTEEN
-1.3802 CAUTION S_A SIX
-1.3802 CAUTION S_A TEN
-1.3802 CAUTION S_A THIRTEEN
-1.3802 CAUTION S_A THREE
-1.3802 CAUTION S_A TWO
-0.3010 CINNAMON EIGHT ONE
-0.3010 CINNAMON FIVE ONE
-0.3010 CINNAMON FOUR ONE
-0.3010 CINNAMON NINER ONE
-0.3010 CINNAMON ONE ONE
-0.3010 CINNAMON SEVEN ONE
-0.3010 CINNAMON SIX ONE
-0.3010 CINNAMON THREE ONE
-0.3010 CINNAMON TWO ONE
-0.3010 CONTACT FOUR SHIP
-0.3010 CONTACT SINGLE SHIP
-0.3010 CONTACT THREE SHIP
-0.3010 CONTACT TWO SHIP
-0.3010 DAGGER EIGHT ONE
-0.3010 DAGGER FIVE ONE
-0.3010 DAGGER FOUR ONE
-0.3010 DAGGER NINER ONE
-0.3010 DAGGER ONE ONE
-0.3010 DAGGER SEVEN ONE
-0.3010 DAGGER SIX ONE
-0.3010 DAGGER THREE ONE
-0.3010 DAGGER TWO ONE
-0.3010 DECIMAL EIGHT </s>
-0.3010 DECIMAL FIVE </s>
-0.3010 DECIMAL FOUR </s>
-0.3010 DECIMAL NINER </s>
-0.3010 DECIMAL ONE </s>
-0.3010 DECIMAL SEVEN </s>
-0.3010 DECIMAL SIX </s>
-0.3010 DECIMAL THREE </s>
-0.3010 DECIMAL TWO </s>
-0.3010 DECIMAL ZERO </s>
-0.3010 DRAG EAST HOSTILE
-0.3010 DRAG NORTH HOSTILE
-0.3010 DRAG NORTHEAST HOSTILE
-0.3010 DRAG NORTHWEST HOSTILE
-0.3010 DRAG SOUTH HOSTILE
-0.3010 DRAG SOUTHEAST HOSTILE
-0.3010 DRAG SOUTHWEST HOSTILE
-0.3010 DRAG WEST HOSTILE
-0.3010 DRAGGING EAST HOSTILE
-0.3010 DRAGGING NORTH HOSTILE
-0.3010 DRAGGING NORTHEAST HOSTILE
-0.3010 DRAGGING NORTHWEST HOSTILE
-0.3010 DRAGGING SOUTH HOSTILE
-0.3010 DRAGGING SOUTHEAST HOSTILE
-0.3010 DRAGGING SOUTHWEST HOSTILE
-0.3010 DRAGGING WEST HOSTILE
-0.3010 EAGLE EIGHT ONE
-0.3010 EAGLE FIVE ONE
-0.3010 EAGLE FOUR ONE
-0.3010 EAGLE NINER ONE
-0.3010 EAGLE ONE ONE
-0.3010 EAGLE SEVEN ONE
-0.3010 EAGLE SIX ONE
-0.3010 EAGLE THREE ONE
-0.3010 EAGLE TWO ONE
-0.3010 EAST HOSTILE </s>
-1.3010 EIGHT DECIMAL EIGHT
-1.3010 EIGHT DECIMAL FIVE
-1.3010 EIGHT DECIMAL FOUR
-1.3010 EIGHT DECIMAL NINER
-1.3010 EIGHT DECIMAL ONE
-1.3010 EIGHT DECIMAL SEVEN
-1.3010 EIGHT DECIMAL SIX
-1.3010 EIGHT DECIMAL THREE
-1.3010 EIGHT DECIMAL TWO
-1.3010 EIGHT DECIMAL ZERO
-0.3010 EIGHT EIGHT </s>
-0.3010 EIGHT FIVE </s>
-0.3010 EIGHT FOUR </s>
-0.3010 EIGHT NINER </s>
-0.9208 EIGHT ONE </s>
-0.4202 EIGHT ONE MAGIC
-0.3010 EIGHT SEVEN </s>
-0.3010 EIGHT SIX </s>
-0.3010 EIGHT THOUSAND </s>
-0.3010 EIGHT THREE </s>
-0.3010 EIGHT TWO </s>
-0.3010 EIGHT ZERO </s>
-1.3010 EIGHTEEN DECIMAL EIGHT
-1.3010 EIGHTEEN DECIMAL FIVE
-1.3010 EIGHTEEN DECIMAL FOUR
-1.3010 EIGHTEEN DECIMAL NINER
-1.3010 EIGHTEEN DECIMAL ONE
-1.3010 EIGHTEEN DECIMAL SEVEN
-1.3010 EIGHTEEN DECIMAL SIX
-1.3010 EIGHTEEN DECIMAL THREE
-1.3010 EIGHTEEN DECIMAL TWO
-1.3010 EIGHTEEN DECIMAL ZERO
-0.9031 EIGHTEEN FOR BYE
-0.9031 EIGHTEEN FOR CAP
-0.9031 EIGHTEEN FOR SEED
-0.9031 EIGHTEEN FOR STRIKE
-0.3010 EIGHTEEN THOUSAND </s>
-0.3010 EIGHTY EIGHT </s>
-0.3010 EIGHTY FIVE </s>
-0.3010 EIGHTY FOUR </s>
-0.3010 EIGHTY NINER </s>
-0.3010 EIGHTY ONE </s>
-0.3010 EIGHTY SEVEN </s>
-0.3010 EIGHTY SIX </s>
-0.3010 EIGHTY THREE </s>
-0.3010 EIGHTY TWO </s>
-1.3010 ELEVEN DECIMAL EIGHT
-1.3010 ELEVEN DECIMAL FIVE
-1.3010 ELEVEN DECIMAL FOUR
-1.3010 ELEVEN DECIMAL NINER
-1.3010 ELEVEN DECIMAL ONE
-1.3010 ELEVEN DECIMAL SEVEN
-1.3010 ELEVEN DECIMAL SIX
-1.3010 ELEVEN DECIMAL THREE
-1.3010 ELEVEN DECIMAL TWO
-1.3010 ELEVEN DECIMAL ZERO
-0.3010 ELEVEN THOUSAND </s>
-0.3010 F EIGHTEEN FOR
-0.3010 F SIXTEEN FOR
-0.3010 FELINE EIGHT ONE
-0.3010 FELINE FIVE ONE
-0.3010 FELINE FOUR ONE
-0.3010 FELINE NINER ONE
-0.3010 FELINE ONE ONE
-0.3010 FELINE SEVEN ONE
-0.3010 FELINE SIX ONE
-0.3010 FELINE THREE ONE
-0.3010 FELINE TWO ONE
-1.3010 FIFTEEN DECIMAL EIGHT
-1.3010 FIFTEEN DECIMAL FIVE
-1.3010 FIFTEEN DECIMAL FOUR
-1.3010 FIFTEEN DECIMAL NINER
-1.3010 FIFTEEN DECIMAL ONE
-1.3010 FIFTEEN DECIMAL SEVEN
-1.3010 FIFTEEN DECIMAL SIX
-1.3010 FIFTEEN DECIMAL THREE
-1.3010 FIFTEEN DECIMAL TWO
-1.3010 FIFTEEN DECIMAL ZERO
-0.3010 FIFTEEN THOUSAND </s>
-0.3010 FIFTY EIGHT </s>
-0.3010 FIFTY FIVE </s>
-0.3010 FIFTY FOUR </s>
-0.3010 FIFTY NINER </s>
-0.3010 FIFTY ONE </s>
-0.3010 FIFTY SEVEN </s>
-0.3010 FIFTY SIX </s>
-0.3010 FIFTY THREE </s>
-0.3010 FIFTY TWO </s>
-1.3010 FIVE DECIMAL EIGHT
-1.3010 FIVE DECIMAL FIVE
-1.3010 FIVE DECIMAL FOUR
-1.3010 FIVE DECIMAL NINER
-1.3010 FIVE DECIMAL ONE
-1.3010 FIVE DECIMAL SEVEN
-1.3010 FIVE DECIMAL SIX
-1.3010 FIVE DECIMAL THREE
-1.3010 FIVE DECIMAL TWO
-1.3010 FIVE DECIMAL ZERO
-0.3010 FIVE EIGHT </s>
-0.3010 FIVE FIVE </s>
-0.3010 FIVE FOUR </s>
-0.3010 FIVE NINER </s>
-0.8293 FIVE ONE </s>
-0.4536 FIVE ONE MAGIC
-0.3010 FIVE SEVEN </s>
-0.3010 FIVE SIX </s>
-0.3010 FIVE THOUSAND </s>
-0.3010 FIVE THREE </s>
-0.3010 FIVE TWO </s>
-0.3010 FIVE ZERO </s>
-0.3010 FLANK EAST HOSTILE
-0.3010 FLANK NORTH HOSTILE
-0.3010 FLANK NORTHEAST HOSTILE
-0.3010 FLANK NORTHWEST HOSTILE
-0.3010 FLANK SOUTH HOSTILE
-0.3010 FLANK SOUTHEAST HOSTILE
-0.3010 FLANK SOUTHWEST HOSTILE
-0.3010 FLANK WEST HOSTILE
-0.3010 FLANKING EAST HOSTILE
-0.3010 FLANKING NORTH HOSTILE
-0.3010 FLANKING NORTHEAST HOSTILE
-0.3010 FLANKING NORTHWEST HOSTILE
-0.3010 FLANKING SOUTH HOSTILE
-0.3010 FLANKING SOUTHEAST HOSTILE
-0.3010 FLANKING SOUTHWEST HOSTILE
-0.3010 FLANKING WEST HOSTILE
-0.3010 FOR BYE </s>
-0.3010 FOR CAP </s>
-0.3010 FOR SEED </s>
-0.3010 FOR STRIKE </s>
-0.3010 FORTY EIGHT </s>
-0.3010 FORTY FIVE </s>
-0.3010 FORTY FOUR </s>
-0.3010 FORTY NINER </s>
-0.3010 FORTY ONE </s>
-0.3010 FORTY SEVEN </s>
-0.3010 FORTY SIX </s>
-0.3010 FORTY THOUSAND </s>
-0.3010 FORTY THREE </s>
-0.3010 FORTY TWO </s>
-1.3010 FOUR DECIMAL EIGHT
-1.3010 FOUR DECIMAL FIVE
-1.3010 FOUR DECIMAL FOUR
-1.3010 FOUR DECIMAL NINER
-1.3010 FOUR DECIMAL ONE
-1.3010 FOUR DECIMAL SEVEN
-1.3010 FOUR DECIMAL SIX
-1.3010 FOUR DECIMAL THREE
-1.3010 FOUR DECIMAL TWO
-1.3010 FOUR DECIMAL ZERO
-0.3010 FOUR EIGHT </s>
-0.3010 FOUR FIVE </s>
-0.3010 FOUR FOUR </s>
-0.3010 FOUR NINER </s>
-0.8293 FOUR ONE </s>
-0.4536 FOUR ONE MAGIC
-0.3010 FOUR SEVEN </s>
-0.4771 FOUR SHIP F
-0.7782 FOUR SHIP J_F
-0.3010 FOUR SIX </s>
-0.3010 FOUR THOUSAND </s>
-0.3010 FOUR THREE </s>
-0.3010 FOUR TWO </s>
-0.3010 FOUR ZERO </s>
-1.3010 FOURTEEN DECIMAL EIGHT
-1.3010 FOURTEEN DECIMAL FIVE
-1.3010 FOURTEEN DECIMAL FOUR
-1.3010 FOURTEEN DECIMAL NINER
-1.3010 FOURTEEN DECIMAL ONE
-1.3010 FOURTEEN DECIMAL SEVEN
-1.3010 FOURTEEN DECIMAL SIX
-1.3010 FOURTEEN DECIMAL THREE
-1.3010 FOURTEEN DECIMAL TWO
-1.3010 FOURTEEN DECIMAL ZERO
-0.3010 FOURTEEN THOUSAND </s>
-0.3010 GANTRY EIGHT ONE
-0.3010 GANTRY FIVE ONE
-0.3010 GANTRY FOUR ONE
-0.3010 GANTRY NINER ONE
-0.3010 GANTRY ONE ONE
-0.3010 GANTRY SEVEN ONE
-0.3010 GANTRY SIX ONE
-0.3010 GANTRY THREE ONE
-0.3010 GANTRY TWO ONE
-0.3010 HOG EIGHT ONE
-0.3010 HOG FIVE ONE
-0.3010 HOG FOUR ONE
-0.3010 HOG NINER ONE
-0.3010 HOG ONE ONE
-0.3010 HOG SEVEN ONE
-0.3010 HOG SIX ONE
-0.3010 HOG THREE ONE
-0.3010 HOG TWO ONE
-0.3010 HOT HOSTILE </s>
-0.3010 ICY EIGHT ONE
-0.3010 ICY FIVE ONE
-0.3010 ICY FOUR ONE
-0.3010 ICY NINER ONE
-0.3010 ICY ONE ONE
-0.3010 ICY SEVEN ONE
-0.3010 ICY SIX ONE
-0.3010 ICY THREE ONE
-0.3010 ICY TWO ONE
-0.3010 JOKER EIGHT ONE
-0.3010 JOKER FIVE ONE
-0.3010 JOKER FOUR ONE
-0.3010 JOKER NINER ONE
-0.3010 JOKER ONE ONE
-0.3010 JOKER SEVEN ONE
-0.3010 JOKER SIX ONE
-0.3010 JOKER THREE ONE
-0.3010 JOKER TWO ONE
-0.3010 J_F SEVENTEEN FOR
-0.3010 KALE EIGHT ONE
-0.3010 KALE FIVE ONE
-0.3010 KALE FOUR ONE
-0.3010 KALE NINER ONE
-0.3010 KALE ONE ONE
-0.3010 KALE SEVEN ONE
-0.3010 KALE SIX ONE
-0.3010 KALE THREE ONE
-0.3010 KALE TWO ONE
-0.3010 LONGBOW EIGHT ONE
-0.3010 LONGBOW FIVE ONE
-0.3010 LONGBOW FOUR ONE
-0.3010 LONGBOW NINER ONE
-0.3010 LONGBOW ONE ONE
-0.3010 LONGBOW SEVEN ONE
-0.3010 LONGBOW SIX ONE
-0.3010 LONGBOW THREE ONE
-0.3010 LONGBOW TWO ONE
-0.3010 MINUS EIGHT DECIMAL
-0.3010 MINUS EIGHTEEN DECIMAL
-0.3010 MINUS ELEVEN DECIMAL
-0.3010 MINUS FIFTEEN DECIMAL
-0.3010 MINUS FIVE DECIMAL
-0.3010 MINUS FOUR DECIMAL
-0.3010 MINUS FOURTEEN DECIMAL
-0.3010 MINUS NINER DECIMAL
-0.3010 MINUS NINETEEN DECIMAL
-0.3010 MINUS ONE DECIMAL
-0.3010 MINUS SEVEN DECIMAL
-0.3010 MINUS SEVENTEEN DECIMAL
-0.3010 MINUS SIX DECIMAL
-0.3010 MINUS SIXTEEN DECIMAL
-0.3010 MINUS TEN DECIMAL
-0.3010 MINUS THIRTEEN DECIMAL
-0.3010 MINUS THREE DECIMAL
-0.3010 MINUS TWELVE DECIMAL
-0.3010 MINUS TWO DECIMAL
-0.3010 MINUS ZERO DECIMAL
-0.3010 MISFIT EIGHT ONE
-0.3010 MISFIT FIVE ONE
-0.3010 MISFIT FOUR ONE
-0.3010 MISFIT NINER ONE
-0.3010 MISFIT ONE ONE
-0.3010 MISFIT SEVEN ONE
-0.3010 MISFIT SIX ONE
-0.3010 MISFIT THREE ONE
-0.3010 MISFIT TWO ONE
-0.3010 NEGATIVE CONTACT </s>
-1.3010 NINER DECIMAL EIGHT
-1.3010 NINER DECIMAL FIVE
-1.3010 NINER DECIMAL FOUR
-1.3010 NINER DECIMAL NINER
-1.3010 NINER DECIMAL ONE
-1.3010 NINER DECIMAL SEVEN
-1.3010 NINER DECIMAL SIX
-1.3010 NINER DECIMAL THREE
-1.3010 NINER DECIMAL TWO
-1.3010 NINER DECIMAL ZERO
-0.3010 NINER EIGHT </s>
-0.3010 NINER FIVE </s>
-0.3010 NINER FOUR </s>
-0.3010 NINER NINER </s>
-0.9208 NINER ONE </s>
-0.4202 NINER ONE MAGIC
-0.3010 NINER SEVEN </s>
-0.3010 NINER SIX </s>
-0.3010 NINER THOUSAND </s>
-0.3010 NINER THREE </s>
-0.3010 NINER TWO </s>
-0.3010 NINER ZERO </s>
-1.3010 NINETEEN DECIMAL EIGHT
-1.3010 NINETEEN DECIMAL FIVE
-1.3010 NINETEEN DECIMAL FOUR
-1.3010 NINETEEN DECIMAL NINER
-1.3010 NINETEEN DECIMAL ONE
-1.3010 NINETEEN DECIMAL SEVEN
-1.3010 NINETEEN DECIMAL SIX
-1.3010 NINETEEN DECIMAL THREE
-1.3010 NINETEEN DECIMAL TWO
-1.3010 NINETEEN DECIMAL ZERO
-0.3010 NINETEEN THOUSAND </s>
-0.3010 NINETY FIVE </s>
-0.3010 NINETY FOUR </s>
-0.3010 NINETY ONE </s>
-0.3010 NINETY THREE </s>
-0.3010 NINETY TWO </s>
-0.3010 NITRO EIGHT ONE
-0.3010 NITRO FIVE ONE
-0.3010 NITRO FOUR ONE
-0.3010 NITRO NINER ONE
-0.3010 NITRO ONE ONE
-0.3010 NITRO SEVEN ONE
-0.3010 NITRO SIX ONE
-0.3010 NITRO THREE ONE
-0.3010 NITRO TWO ONE
-0.3010 NORTH HOSTILE </s>
-0.3010 NORTHEAST HOSTILE </s>
-0.3010 NORTHWEST HOSTILE </s>
-1.3010 ONE DECIMAL EIGHT
-1.3010 ONE DECIMAL FIVE
-1.3010 ONE DECIMAL FOUR
-1.3010 ONE DECIMAL NINER
-1.3010 ONE DECIMAL ONE
-1.3010 ONE DECIMAL SEVEN
-1.3010 ONE DECIMAL SIX
-1.3010 ONE DECIMAL THREE
-1.3010 ONE DECIMAL TWO
-1.3010 ONE DECIMAL ZERO
-0.8451 ONE EIGHT </s>
-1.4472 ONE EIGHT EIGHT
-1.4472 ONE EIGHT FIVE
-1.4472 ONE EIGHT FOUR
-1.4472 ONE EIGHT NINER
-1.4472 ONE EIGHT ONE
-1.4472 ONE EIGHT SEVEN
-1.4472 ONE EIGHT SIX
-1.4472 ONE EIGHT THREE
-1.4472 ONE EIGHT TWO
-1.4472 ONE EIGHT ZERO
-0.8451 ONE FIVE </s>
-1.4472 ONE FIVE EIGHT
-1.4472 ONE FIVE FIVE
-1.4472 ONE FIVE FOUR
-1.4472 ONE FIVE NINER
-1.4472 ONE FIVE ONE
-1.4472 ONE FIVE SEVEN
-1.4472 ONE FIVE SIX
-1.4472 ONE FIVE THREE
-1.4472 ONE FIVE TWO
-1.4472 ONE FIVE ZERO
-0.8451 ONE FOUR </s>
-1.4472 ONE FOUR EIGHT
-1.4472 ONE FOUR FIVE
-1.4472 ONE FOUR FOUR
-1.4472 ONE FOUR NINER
-1.4472 ONE FOUR ONE
-1.4472 ONE FOUR SEVEN
-1.4472 ONE FOUR SIX
-1.4472 ONE FOUR THREE
-1.4472 ONE FOUR TWO
-1.4472 ONE FOUR ZERO
-0.3010 ONE MAGIC </s>
-0.8451 ONE NINER </s>
-1.4472 ONE NINER EIGHT
-1.4472 ONE NINER FIVE
-1.4472 ONE NINER FOUR
-1.4472 ONE NINER NINER
-1.4472 ONE NINER ONE
-1.4472 ONE NINER SEVEN
-1.4472 ONE NINER SIX
-1.4472 ONE NINER THREE
-1.4472 ONE NINER TWO
-1.4472 ONE NINER ZERO
-1.0700 ONE ONE </s>
-1.6721 ONE ONE EIGHT
-1.6721 ONE ONE FIVE
-1.6721 ONE ONE FOUR
-0.6944 ONE ONE MAGIC
-1.6721 ONE ONE NINER
-1.6721 ONE ONE ONE
-1.6721 ONE ONE SEVEN
-1.6721 ONE ONE SIX
-1.6721 ONE ONE THREE
-1.6721 ONE ONE TWO
-1.6721 ONE ONE ZERO
-0.8451 ONE SEVEN </s>
-1.4472 ONE SEVEN EIGHT
-1.4472 ONE SEVEN FIVE
-1.4472 ONE SEVEN FOUR
-1.4472 ONE SEVEN NINER
-1.4472 ONE SEVEN ONE
-1.4472 ONE SEVEN SEVEN
-1.4472 ONE SEVEN SIX
-1.4472 ONE SEVEN THREE
-1.4472 ONE SEVEN TWO
-1.4472 ONE SEVEN ZERO
-0.8451 ONE SIX </s>
-1.4472 ONE SIX EIGHT
-1.4472 ONE SIX FIVE
-1.4472 ONE SIX FOUR
-1.4472 ONE SIX NINER
-1.4472 ONE SIX ONE
-1.4472 ONE SIX SEVEN
-1.4472 ONE SIX SIX
-1.4472 ONE SIX THREE
-1.4472 ONE SIX TWO
-1.4472 ONE SIX ZERO
-0.3010 ONE THOUSAND </s>
-0.8451 ONE THREE </s>
-1.4472 ONE THREE EIGHT
-1.4472 ONE THREE FIVE
-1.4472 ONE THREE FOUR
-1.4472 ONE THREE NINER
-1.4472 ONE THREE ONE
-1.4472 ONE THREE SEVEN
-1.4472 ONE THREE SIX
-1.4472 ONE THREE THREE
-1.4472 ONE THREE TWO
-1.4472 ONE THREE ZERO
-0.8451 ONE TWO </s>
-1.4472 ONE TWO EIGHT
-1.4472 ONE TWO FIVE
-1.4472 ONE TWO FOUR
-1.4472 ONE TWO NINER
-1.4472 ONE TWO ONE
-1.4472 ONE TWO SEVEN
-1.4472 ONE TWO SIX
-1.4472 ONE TWO THREE
-1.4472 ONE TWO TWO
-1.4472 ONE TWO ZERO
-0.8451 ONE ZERO </s>
-1.4472 ONE ZERO EIGHT
-1.4472 ONE ZERO FIVE
-1.4472 ONE ZERO FOUR
-1.4472 ONE ZERO NINER
-1.4472 ONE ZERO ONE
-1.4472 ONE ZERO SEVEN
-1.4472 ONE ZERO SIX
-1.4472 ONE ZERO THREE
-1.4472 ONE ZERO TWO
-1.4472 ONE ZERO ZERO
-0.3010 PLUS EIGHT DECIMAL
-0.3010 PLUS EIGHTEEN DECIMAL
-0.3010 PLUS ELEVEN DECIMAL
-0.3010 PLUS FIFTEEN DECIMAL
-0.3010 PLUS FIVE DECIMAL
-0.3010 PLUS FOUR DECIMAL
-0.3010 PLUS FOURTEEN DECIMAL
-0.3010 PLUS NINER DECIMAL
-0.3010 PLUS NINETEEN DECIMAL
-0.3010 PLUS ONE DECIMAL
-0.3010 PLUS SEVEN DECIMAL
-0.3010 PLUS SEVENTEEN DECIMAL
-0.3010 PLUS SIX DECIMAL
-0.3010 PLUS SIXTEEN DECIMAL
-0.3010 PLUS TEN DECIMAL
-0.3010 PLUS THIRTEEN DECIMAL
-0.3010 PLUS THREE DECIMAL
-0.3010 PLUS TWELVE DECIMAL
-0.3010 PLUS TWO DECIMAL
-0.3010 PLUS ZERO DECIMAL
-0.3010 POLARIS EIGHT ONE
-0.3010 POLARIS FIVE ONE
-0.3010 POLARIS FOUR ONE
-0.3010 POLARIS NINER ONE
-0.3010 POLARIS ONE ONE
-0.3010 POLARIS SEVEN ONE
-0.3010 POLARIS SIX ONE
-0.3010 POLARIS THREE ONE
-0.3010 POLARIS TWO ONE
-0.9031 RADAR CONTACT FOUR
-0.9031 RADAR CONTACT SINGLE
-0.9031 RADAR CONTACT THREE
-0.9031 RADAR CONTACT TWO
-0.3010 REACH EIGHT ONE
-0.3010 REACH FIVE ONE
-0.3010 REACH FOUR ONE
-0.3010 REACH NINER ONE
-0.3010 REACH ONE ONE
-0.3010 REACH SEVEN ONE
-0.3010 REACH SIX ONE
-0.3010 REACH THREE ONE
-0.3010 REACH TWO ONE
-1.3010 SEVEN DECIMAL EIGHT
-1.3010 SEVEN DECIMAL FIVE
-1.3010 SEVEN DECIMAL FOUR
-1.3010 SEVEN DECIMAL NINER
-1.3010 SEVEN DECIMAL ONE
-1.3010 SEVEN DECIMAL SEVEN
-1.3010 SEVEN DECIMAL SIX
-1.3010 SEVEN DECIMAL THREE
-1.3010 SEVEN DECIMAL TWO
-1.3010 SEVEN DECIMAL ZERO
-0.3010 SEVEN EIGHT </s>
-0.3010 SEVEN FIVE </s>
-0.3010 SEVEN FOUR </s>
-0.3010 SEVEN NINER </s>
-0.9208 SEVEN ONE </s>
-0.4202 SEVEN ONE MAGIC
-0.3010 SEVEN SEVEN </s>
-0.3010 SEVEN SIX </s>
-0.3010 SEVEN THOUSAND </s>
-0.3010 SEVEN THREE </s>
-0.3010 SEVEN TWO </s>
-0.3010 SEVEN ZERO </s>
-1.3010 SEVENTEEN DECIMAL EIGHT
-1.3010 SEVENTEEN DECIMAL FIVE
-1.3010 SEVENTEEN DECIMAL FOUR
-1.3010 SEVENTEEN DECIMAL NINER
-1.3010 SEVENTEEN DECIMAL ONE
-1.3010 SEVENTEEN DECIMAL SEVEN
-1.3010 SEVENTEEN DECIMAL SIX
-1.3010 SEVENTEEN DECIMAL THREE
-1.3010 SEVENTEEN DECIMAL TWO
-1.3010 SEVENTEEN DECIMAL ZERO
-0.9031 SEVENTEEN FOR BYE
-0.9031 SEVENTEEN FOR CAP
-0.9031 SEVENTEEN FOR SEED
-0.9031 SEVENTEEN FOR STRIKE
-0.3010 SEVENTEEN THOUSAND </s>
-0.3010 SEVENTY EIGHT </s>
-0.3010 SEVENTY FIVE </s>
-0.3010 SEVENTY FOUR </s>
-0.3010 SEVENTY NINER </s>
-0.3010 SEVENTY ONE </s>
-0.3010 SEVENTY SEVEN </s>
-0.3010 SEVENTY SIX </s>
-0.3010 SEVENTY THREE </s>
-0.3010 SEVENTY TWO </s>
-0.6021 SHIP F EIGHTEEN
-0.6021 SHIP F SIXTEEN
-0.3010 SHIP J_F SEVENTEEN
-0.3010 SIMPLE EIGHT ONE
-0.3010 SIMPLE FIVE ONE
-0.3010 SIMPLE FOUR ONE
-0.3010 SIMPLE NINER ONE
-0.3010 SIMPLE ONE ONE
-0.3010 SIMPLE SEVEN ONE
-0.3010 SIMPLE SIX ONE
-0.3010 SIMPLE THREE ONE
-0.3010 SIMPLE TWO ONE
-0.4771 SINGLE SHIP F
-0.7782 SINGLE SHIP J_F
-1.3010 SIX DECIMAL EIGHT
-1.3010 SIX DECIMAL FIVE
-1.3010 SIX DECIMAL FOUR
-1.3010 SIX DECIMAL NINER
-1.3010 SIX DECIMAL ONE
-1.3010 SIX DECIMAL SEVEN
-1.3010 SIX DECIMAL SIX
-1.3010 SIX DECIMAL THREE
-1.3010 SIX DECIMAL TWO
-1.3010 SIX DECIMAL ZERO
-0.3010 SIX EIGHT </s>
-0.3010 SIX FIVE </s>
-0.3010 SIX FOUR </s>
-0.3010 SIX NINER </s>
-0.9208 SIX ONE </s>
-0.4202 SIX ONE MAGIC
-0.3010 SIX SEVEN </s>
-0.3010 SIX SIX </s>
-0.3010 SIX THOUSAND </s>
-0.3010 SIX THREE </s>
-0.3010 SIX TWO </s>
-0.3010 SIX ZERO </s>
-1.3010 SIXTEEN DECIMAL EIGHT
-1.3010 SIXTEEN DECIMAL FIVE
-1.3010 SIXTEEN DECIMAL FOUR
-1.3010 SIXTEEN DECIMAL NINER
-1.3010 SIXTEEN DECIMAL ONE
-1.3010 SIXTEEN DECIMAL SEVEN
-1.3010 SIXTEEN DECIMAL SIX
-1.3010 SIXTEEN DECIMAL THREE
-1.3010 SIXTEEN DECIMAL TWO
-1.3010 SIXTEEN DECIMAL ZERO
-0.9031 SIXTEEN FOR BYE
-0.9031 SIXTEEN FOR CAP
-0.9031 SIXTEEN FOR SEED
-0.9031 SIXTEEN FOR STRIKE
-0.3010 SIXTEEN THOUSAND </s>
-0.3010 SIXTY EIGHT </s>
-0.3010 SIXTY FIVE </s>
-0.3010 SIXTY FOUR </s>
-0.3010 SIXTY NINER </s>
-0.3010 SIXTY ONE </s>
-0.3010 SIXTY SEVEN </s>
-0.3010 SIXTY SIX </s>
-0.3010 SIXTY THREE </s>
-0.3010 SIXTY TWO </s>
-0.3010 SOUTH HOSTILE </s>
-0.3010 SOUTHEAST HOSTILE </s>
-0.3010 SOUTHWEST HOSTILE </s>
-0.3010 S_A EIGHT </s>
-0.3010 S_A ELEVEN </s>
-0.3010 S_A FIFTEEN </s>
-0.3010 S_A FIVE </s>
-0.3010 S_A NINER </s>
-0.3010 S_A NINETEEN </s>
-0.3010 S_A SEVENTEEN </s>
-0.3010 S_A SIX </s>
-0.3010 S_A TEN </s>
-0.3010 S_A THIRTEEN </s>
-0.3010 S_A THREE </s>
-0.3010 S_A TWO </s>
-0.3010 TEMPEST EIGHT ONE
-0.3010 TEMPEST FIVE ONE
-0.3010 TEMPEST FOUR ONE
-0.3010 TEMPEST NINER ONE
-0.3010 TEMPEST ONE ONE
-0.3010 TEMPEST SEVEN ONE
-0.3010 TEMPEST SIX ONE
-0.3010 TEMPEST THREE ONE
-0.3010 TEMPEST TWO ONE
-1.3010 TEN DECIMAL EIGHT
-1.3010 TEN DECIMAL FIVE
-1.3010 TEN DECIMAL FOUR
-1.3010 TEN DECIMAL NINER
-1.3010 TEN DECIMAL ONE
-1.3010 TEN DECIMAL SEVEN
-1.3010 TEN DECIMAL SIX
-1.3010 TEN DECIMAL THREE
-1.3010 TEN DECIMAL TWO
-1.3010 TEN DECIMAL ZERO
-0.3010 TEN THOUSAND </s>
-1.3010 THIRTEEN DECIMAL EIGHT
-1.3010 THIRTEEN DECIMAL FIVE
-1.3010 THIRTEEN DECIMAL FOUR
-1.3010 THIRTEEN DECIMAL NINER
-1.3010 THIRTEEN DECIMAL ONE
-1.3010 THIRTEEN DECIMAL SEVEN
-1.3010 THIRTEEN DECIMAL SIX
-1.3010 THIRTEEN DECIMAL THREE
-1.3010 THIRTEEN DECIMAL TWO
-1.3010 THIRTEEN DECIMAL ZERO
-0.3010 THIRTEEN THOUSAND </s>
-0.3010 THIRTY EIGHT THOUSAND
-0.3010 THIRTY FIVE THOUSAND
-0.3010 THIRTY FOUR THOUSAND
-0.3010 THIRTY NINER THOUSAND
-0.3010 THIRTY ONE THOUSAND
-0.3010 THIRTY SEVEN THOUSAND
-0.3010 THIRTY SIX THOUSAND
-0.3010 THIRTY THOUSAND </s>
-0.3010 THIRTY THREE THOUSAND
-0.3010 THIRTY TWO THOUSAND
-0.8573 THREAT BRA ONE
-1.0792 THREAT BRA THREE
-0.8573 THREAT BRA TWO
-0.8573 THREAT BRA ZERO
-0.8573 THREAT BULLSEYE ONE
-1.0792 THREAT BULLSEYE THREE
-0.8573 THREAT BULLSEYE TWO
-0.8573 THREAT BULLSEYE ZERO
-1.3010 THREE DECIMAL EIGHT
-1.3010 THREE DECIMAL FIVE
-1.3010 THREE DECIMAL FOUR
-1.3010 THREE DECIMAL NINER
-1.3010 THREE DECIMAL ONE
-1.3010 THREE DECIMAL SEVEN
-1.3010 THREE DECIMAL SIX
-1.3010 THREE DECIMAL THREE
-1.3010 THREE DECIMAL TWO
-1.3010 THREE DECIMAL ZERO
-0.3010 THREE EIGHT </s>
-0.8451 THREE FIVE </s>
-1.4472 THREE FIVE EIGHT
-1.4472 THREE FIVE FIVE
-1.4472 THREE FIVE FOUR
-1.4472 THREE FIVE NINER
-1.4472 THREE FIVE ONE
-1.4472 THREE FIVE SEVEN
-1.4472 THREE FIVE SIX
-1.4472 THREE FIVE THREE
-1.4472 THREE FIVE TWO
-1.4472 THREE FIVE ZERO
-0.8451 THREE FOUR </s>
-1.4472 THREE FOUR EIGHT
-1.4472 THREE FOUR FIVE
-1.4472 THREE FOUR FOUR
-1.4472 THREE FOUR NINER
-1.4472 THREE FOUR ONE
-1.4472 THREE FOUR SEVEN
-1.4472 THREE FOUR SIX
-1.4472 THREE FOUR THREE
-1.4472 THREE FOUR TWO
-1.4472 THREE FOUR ZERO
-0.3010 THREE NINER </s>
-1.0700 THREE ONE </s>
-1.6721 THREE ONE EIGHT
-1.6721 THREE ONE FIVE
-1.6721 THREE ONE FOUR
-0.6944 THREE ONE MAGIC
-1.6721 THREE ONE NINER
-1.6721 THREE ONE ONE
-1.6721 THREE ONE SEVEN
-1.6721 THREE ONE SIX
-1.6721 THREE ONE THREE
-1.6721 THREE ONE TWO
-1.6721 THREE ONE ZERO
-0.3010 THREE SEVEN </s>
-0.4771 THREE SHIP F
-0.7782 THREE SHIP J_F
-0.3010 THREE SIX </s>
-0.3010 THREE THOUSAND </s>
-0.8451 THREE THREE </s>
-1.4472 THREE THREE EIGHT
-1.4472 THREE THREE FIVE
-1.4472 THREE THREE FOUR
-1.4472 THREE THREE NINER
-1.4472 THREE THREE ONE
-1.4472 THREE THREE SEVEN
-1.4472 THREE THREE SIX
-1.4472 THREE THREE THREE
-1.4472 THREE THREE TWO
-1.4472 THREE THREE ZERO
-0.8451 THREE TWO </s>
-1.4472 THREE TWO EIGHT
-1.4472 THREE TWO FIVE
-1.4472 THREE TWO FOUR
-1.4472 THREE TWO NINER
-1.4472 THREE TWO ONE
-1.4472 THREE TWO SEVEN
-1.4472 THREE TWO SIX
-1.4472 THREE TWO THREE
-1.4472 THREE TWO TWO
-1.4472 THREE TWO ZERO
-0.8451 THREE ZERO </s>
-1.4472 THREE ZERO EIGHT
-1.4472 THREE ZERO FIVE
-1.4472 THREE ZERO FOUR
-1.4472 THREE ZERO NINER
-1.4472 THREE ZERO ONE
-1.4472 THREE ZERO SEVEN
-1.4472 THREE ZERO SIX
-1.4472 THREE ZERO THREE
-1.4472 THREE ZERO TWO
-1.4472 THREE ZERO ZERO
-1.3010 TWELVE DECIMAL EIGHT
-1.3010 TWELVE DECIMAL FIVE
-1.3010 TWELVE DECIMAL FOUR
-1.3010 TWELVE DECIMAL NINER
-1.3010 TWELVE DECIMAL ONE
-1.3010 TWELVE DECIMAL SEVEN
-1.3010 TWELVE DECIMAL SIX
-1.3010 TWELVE DECIMAL THREE
-1.3010 TWELVE DECIMAL TWO
-1.3010 TWELVE DECIMAL ZERO
-0.3010 TWELVE THOUSAND </s>
-0.3010 TWENTY EIGHT THOUSAND
-0.3010 TWENTY FIVE THOUSAND
-0.3010 TWENTY FOUR THOUSAND
-0.3010 TWENTY NINER THOUSAND
-0.3010 TWENTY ONE THOUSAND
-0.3010 TWENTY SEVEN THOUSAND
-0.3010 TWENTY SIX THOUSAND
-0.3010 TWENTY THOUSAND </s>
-0.3010 TWENTY THREE THOUSAND
-0.3010 TWENTY TWO THOUSAND
-1.3010 TWO DECIMAL EIGHT
-1.3010 TWO DECIMAL FIVE
-1.3010 TWO DECIMAL FOUR
-1.3010 TWO DECIMAL NINER
-1.3010 TWO DECIMAL ONE
-1.3010 TWO DECIMAL SEVEN
-1.3010 TWO DECIMAL SIX
-1.3010 TWO DECIMAL THREE
-1.3010 TWO DECIMAL TWO
-1.3010 TWO DECIMAL ZERO
-0.8451 TWO EIGHT </s>
-1.4472 TWO EIGHT EIGHT
-1.4472 TWO EIGHT FIVE
-1.4472 TWO EIGHT FOUR
-1.4472 TWO EIGHT NINER
-1.4472 TWO EIGHT ONE
-1.4472 TWO EIGHT SEVEN
-1.4472 TWO EIGHT SIX
-1.4472 TWO EIGHT THREE
-1.4472 TWO EIGHT TWO
-1.4472 TWO EIGHT ZERO
-0.8451 TWO FIVE </s>
-1.4472 TWO FIVE EIGHT
-1.4472 TWO FIVE FIVE
-1.4472 TWO FIVE FOUR
-1.4472 TWO FIVE NINER
-1.4472 TWO FIVE ONE
-1.4472 TWO FIVE SEVEN
-1.4472 TWO FIVE SIX
-1.4472 TWO FIVE THREE
-1.4472 TWO FIVE TWO
-1.4472 TWO FIVE ZERO
-0.8451 TWO FOUR </s>
-1.4472 TWO FOUR EIGHT
-1.4472 TWO FOUR FIVE
-1.4472 TWO FOUR FOUR
-1.4472 TWO FOUR NINER
-1.4472 TWO FOUR ONE
-1.4472 TWO FOUR SEVEN
-1.4472 TWO FOUR SIX
-1.4472 TWO FOUR THREE
-1.4472 TWO FOUR TWO
-1.4472 TWO FOUR ZERO
-0.8451 TWO NINER </s>
-1.4472 TWO NINER EIGHT
-1.4472 TWO NINER FIVE
-1.4472 TWO NINER FOUR
-1.4472 TWO NINER NINER
-1.4472 TWO NINER ONE
-1.4472 TWO NINER SEVEN
-1.4472 TWO NINER SIX
-1.4472 TWO NINER THREE
-1.4472 TWO NINER TWO
-1.4472 TWO NINER ZERO
-1.0700 TWO ONE </s>
-1.6721 TWO ONE EIGHT
-1.6721 TWO ONE FIVE
-1.6721 TWO ONE FOUR
-0.6944 TWO ONE MAGIC
-1.6721 TWO ONE NINER
-1.6721 TWO ONE ONE
-1.6721 TWO ONE SEVEN
-1.6721 TWO ONE SIX
-1.6721 TWO ONE THREE
-1.6721 TWO ONE TWO
-1.6721 TWO ONE ZERO
-0.8451 TWO SEVEN </s>
-1.4472 TWO SEVEN EIGHT
-1.4472 TWO SEVEN FIVE
-1.4472 TWO SEVEN FOUR
-1.4472 TWO SEVEN NINER
-1.4472 TWO SEVEN ONE
-1.4472 TWO SEVEN SEVEN
-1.4472 TWO SEVEN SIX
-1.4472 TWO SEVEN THREE
-1.4472 TWO SEVEN TWO
-1.4472 TWO SEVEN ZERO
-0.4771 TWO SHIP F
-0.7782 TWO SHIP J_F
-0.8451 TWO SIX </s>
-1.4472 TWO SIX EIGHT
-1.4472 TWO SIX FIVE
-1.4472 TWO SIX FOUR
-1.4472 TWO SIX NINER
-1.4472 TWO SIX ONE
-1.4472 TWO SIX SEVEN
-1.4472 TWO SIX SIX
-1.4472 TWO SIX THREE
-1.4472 TWO SIX TWO
-1.4472 TWO SIX ZERO
-0.3010 TWO THOUSAND </s>
-0.8451 TWO THREE </s>
-1.4472 TWO THREE EIGHT
-1.4472 TWO THREE FIVE
-1.4472 TWO THREE FOUR
-1.4472 TWO THREE NINER
-1.4472 TWO THREE ONE
-1.4472 TWO THREE SEVEN
-1.4472 TWO THREE SIX
-1.4472 TWO THREE THREE
-1.4472 TWO THREE TWO
-1.4472 TWO THREE ZERO
-0.8451 TWO TWO </s>
-1.4472 TWO TWO EIGHT
-1.4472 TWO TWO FIVE
-1.4472 TWO TWO FOUR
-1.4472 TWO TWO NINER
-1.4472 TWO TWO ONE
-1.4472 TWO TWO SEVEN
-1.4472 TWO TWO SIX
-1.4472 TWO TWO THREE
-1.4472 TWO TWO TWO
-1.4472 TWO TWO ZERO
-0.8451 TWO ZERO </s>
-1.4472 TWO ZERO EIGHT
-1.4472 TWO ZERO FIVE
-1.4472 TWO ZERO FOUR
-1.4472 TWO ZERO NINER
-1.4472 TWO ZERO ONE
-1.4472 TWO ZERO SEVEN
-1.4472 TWO ZERO SIX
-1.4472 TWO ZERO THREE
-1.4472 TWO ZERO TWO
-1.4472 TWO ZERO ZERO
-0.3010 VULCAN EIGHT ONE
-0.3010 VULCAN FIVE ONE
-0.3010 VULCAN FOUR ONE
-0.3010 VULCAN NINER ONE
-0.3010 VULCAN ONE ONE
-0.3010 VULCAN SEVEN ONE
-0.3010 VULCAN SIX ONE
-0.3010 VULCAN THREE ONE
-0.3010 VULCAN TWO ONE
-0.3010 WEST HOSTILE </s>
-1.3010 ZERO DECIMAL EIGHT
-1.3010 ZERO DECIMAL FIVE
-1.3010 ZERO DECIMAL FOUR
-1.3010 ZERO DECIMAL NINER
-1.3010 ZERO DECIMAL ONE
-1.3010 ZERO DECIMAL SEVEN
-1.3010 ZERO DECIMAL SIX
-1.3010 ZERO DECIMAL THREE
-1.3010 ZERO DECIMAL TWO
-1.3010 ZERO DECIMAL ZERO
-0.8451 ZERO EIGHT </s>
-1.4472 ZERO EIGHT EIGHT
-1.4472 ZERO EIGHT FIVE
-1.4472 ZERO EIGHT FOUR
-1.4472 ZERO EIGHT NINER
-1.4472 ZERO EIGHT ONE
-1.4472 ZERO EIGHT SEVEN
-1.4472 ZERO EIGHT SIX
-1.4472 ZERO EIGHT THREE
-1.4472 ZERO EIGHT TWO
-1.4472 ZERO EIGHT ZERO
-0.8451 ZERO FIVE </s>
-1.4472 ZERO FIVE EIGHT
-1.4472 ZERO FIVE FIVE
-1.4472 ZERO FIVE FOUR
-1.4472 ZERO FIVE NINER
-1.4472 ZERO FIVE ONE
-1.4472 ZERO FIVE SEVEN
-1.4472 ZERO FIVE SIX
-1.4472 ZERO FIVE THREE
-1.4472 ZERO FIVE TWO
-1.4472 ZERO FIVE ZERO
-0.8451 ZERO FOUR </s>
-1.4472 ZERO FOUR EIGHT
-1.4472 ZERO FOUR FIVE
-1.4472 ZERO FOUR FOUR
-1.4472 ZERO FOUR NINER
-1.4472 ZERO FOUR ONE
-1.4472 ZERO FOUR SEVEN
-1.4472 ZERO FOUR SIX
-1.4472 ZERO FOUR THREE
-1.4472 ZERO FOUR TWO
-1.4472 ZERO FOUR ZERO
-0.8451 ZERO NINER </s>
-1.4472 ZERO NINER EIGHT
-1.4472 ZERO NINER FIVE
-1.4472 ZERO NINER FOUR
-1.4472 ZERO NINER NINER
-1.4472 ZERO NINER ONE
-1.4472 ZERO NINER SEVEN
-1.4472 ZERO NINER SIX
-1.4472 ZERO NINER THREE
-1.4472 ZERO NINER TWO
-1.4472 ZERO NINER ZERO
-0.8451 ZERO ONE </s>
-1.4472 ZERO ONE EIGHT
-1.4472 ZERO ONE FIVE
-1.4472 ZERO ONE FOUR
-1.4472 ZERO ONE NINER
-1.4472 ZERO ONE ONE
-1.4472 ZERO ONE SEVEN
-1.4472 ZERO ONE SIX
-1.4472 ZERO ONE THREE
-1.4472 ZERO ONE TWO
-1.4472 ZERO ONE ZERO
-0.8451 ZERO SEVEN </s>
-1.4472 ZERO SEVEN EIGHT
-1.4472 ZERO SEVEN FIVE
-1.4472 ZERO SEVEN FOUR
-1.4472 ZERO SEVEN NINER
-1.4472 ZERO SEVEN ONE
-1.4472 ZERO SEVEN SEVEN
-1.4472 ZERO SEVEN SIX
-1.4472 ZERO SEVEN THREE
-1.4472 ZERO SEVEN TWO
-1.4472 ZERO SEVEN ZERO
-0.8451 ZERO SIX </s>
-1.4472 ZERO SIX EIGHT
-1.4472 ZERO SIX FIVE
-1.4472 ZERO SIX FOUR
-1.4472 ZERO SIX NINER
-1.4472 ZERO SIX ONE
-1.4472 ZERO SIX SEVEN
-1.4472 ZERO SIX SIX
-1.4472 ZERO SIX THREE
-1.4472 ZERO SIX TWO
-1.4472 ZERO SIX ZERO
-0.3010 ZERO THOUSAND </s>
-0.8451 ZERO THREE </s>
-1.4472 ZERO THREE EIGHT
-1.4472 ZERO THREE FIVE
-1.4472 ZERO THREE FOUR
-1.4472 ZERO THREE NINER
-1.4472 ZERO THREE ONE
-1.4472 ZERO THREE SEVEN
-1.4472 ZERO THREE SIX
-1.4472 ZERO THREE THREE
-1.4472 ZERO THREE TWO
-1.4472 ZERO THREE ZERO
-0.8451 ZERO TWO </s>
-1.4472 ZERO TWO EIGHT
-1.4472 ZERO TWO FIVE
-1.4472 ZERO TWO FOUR
-1.4472 ZERO TWO NINER
-1.4472 ZERO TWO ONE
-1.4472 ZERO TWO SEVEN
-1.4472 ZERO TWO SIX
-1.4472 ZERO TWO THREE
-1.4472 ZERO TWO TWO
-1.4472 ZERO TWO ZERO
-0.8451 ZERO ZERO </s>
-1.4472 ZERO ZERO EIGHT
-1.4472 ZERO ZERO FIVE
-1.4472 ZERO ZERO FOUR
-1.4472 ZERO ZERO NINER
-1.4472 ZERO ZERO ONE
-1.4472 ZERO ZERO SEVEN
-1.4472 ZERO ZERO SIX
-1.4472 ZERO ZERO THREE
-1.4472 ZERO ZERO TWO
-1.4472 ZERO ZERO ZERO

\end\
